tree
version=v4
num_class=1
num_tree_per_iteration=1
label_index=0
max_feature_idx=38
objective=binary sigmoid:1
feature_names=loan_amnt int_rate installment grade sub_grade home_ownership annual_inc verification_status purpose addr_state dti delinq_2yrs inq_last_6mths mths_since_last_delinq open_acc pub_rec revol_bal revol_util total_acc application_type total_rev_hi_lim acc_open_past_24mths avg_cur_bal bc_util mort_acc num_accts_ever_120_pd num_tl_90g_dpd_24m pct_tl_nvr_dlq percent_bc_gt_75 pub_rec_bankruptcies tot_hi_cred_lim term_months emp_length_yrs fico credit_hist_months loan_to_income payment_to_income balance_to_income util_x_delinq
feature_infos=[1000:35000] [5.4199999999999999:26.059999999999999] [21.620000000000001:1408.1300000000001] -1:1:2:0:3:4:5 -1:7:8:6:10:9:11:5:4:12:3:13:14:15:2:16:1:0:17:18:19:20:21:22:23:24:25:26:27:28:29:30:31:32:33 -1:1:5:4:3:2 [3000:7141778] -1:2:0:1 -1:2:1:4:9:6:11:0:7:8:12:13:5:10 -1:4:34:43:9:14:31:38:10:35:45:27:22:20:19:3:47:5:23:24:6:33:37:15:48:42:1:18:40:17:16:36:44:2:11:32:49:30:39:7:26:0:8:50:41:46:25 [0:39.990000000000002] [0:29] [0:10] [0:188] [0:75] [0:54] [0:2568995] [0:180.30000000000001] [2:156] none [0:9999999] [0:50] [0:800008] [0:339.60000000000002] [0:34] [0:30] [0:22] [16:100] [0:100] [0:12] [0:9999999] [36:60] [0:10] [662:847.5] [36:793] [0.0007894736842105263:0.8214285714285714] [0.00028894736842105263:0.29016500000000001] [0:6.0863880597014921] [0:177.69999999999999]
tree_sizes=6701 6945 6935 6960 6952 6967 6983 6943 6997 6975 6930 6912 7021 6993 7021 6944 6992 7003 7025 6972 7050 7018 6985 7033 6982 6994 7017 6938 6935 7028 7066 6998 7059 7001 6999 6950 7060 7063 7025 7059 7017 7064 7008 7071 7031 7062 7024 7064 7039 7031 7052 6959 7015 6917 7061 7023 6992 7072 6971 6962 7015 7083 7101 6964 7083 6984 7017 7091 6952 7048 7038 7051 7030 6975 6967 7059 7019 6964 7016 6991 7005 7070 7036 7045 7047 7020 7075 6987 6916 7005 7011 7001 6953 6969 7007 7049 6972 7020 7000 7013 7068 6954 7044 7013 7000 6981 7062 7022 7018 6971 7091 6942 6899 7006 7022 7007 6999 6969 6962 7036 7039 7003 7061 6980 7004 6969 7060 7041 6950 7004 6983 7051 6964 7077 6981 7041 6954 7089 7069 7003 7038 6996 7020 6952 7002 6960 6917 6966 6985 7004 7043 6912 6946 6930 6972 6975 6955 6976 6940 7044 7009 6985 6995 7001 6942 6889 6874 6981 6947 6961 6975 6985 7029 7013 6985 6951 6899 6954 7006 6936 6989 6991 6935 6943 6896 7021 6970 6933 6921 6972 6941 7007 6925 6902 6969 6957 6928 6967 6966 6959 6937 6932 6882 6942 6924 6923 6923 6909 7013 7035 6919 6890 6967 6908 6941 6917 6997 6907 6939 6931 6982 6908 6956 6927 7001 6959 6935 6949 6929 6981 6928 6966 6969 6916 6925 6932 6951

Tree=0
num_leaves=63
num_cat=23
split_feature=4 4 35 4 3 6 4 21 35 21 6 35 21 35 21 31 21 2 10 21 6 6 9 21 31 3 6 31 35 9 3 35 4 22 9 21 9 4 9 32 9 9 21 35 6 18 9 21 9 3 9 31 20 34 18 9 6 6 22 9 31 9
split_gain=10317.4 1771.48 1585.42 809.158 414.72 400.996 290.087 239.388 221.643 171.227 144.472 124.622 111.613 104.15 103.574 99.4025 105.843 91.5715 87.757 87.0647 83.8344 77.9246 77.1378 75.9958 58.9413 58.2299 57.4597 56.4566 54.3097 53.992 53.7616 50.1224 47.3483 46.6775 48.8965 43.9256 43.7431 41.754 40.0289 39.5297 39.3246 38.7565 37.2025 44.0084 36.83 36.2752 34.734 34.5335 34.1686 33.8351 32.9638 32.4988 35.8269 32.4651 32.233 31.2055 30.6884 30.5015 29.3132 29.3004 28.6599 28.2475
threshold=0 1 0.24924621212121215 2 3 60004.000000000007 4 3.5000000000000004 0.26095409642137662 4.5000000000000009 48003.200000000004 0.073536550542547138 4.5000000000000009 0.070589896271935307 4.5000000000000009 48.000000000000007 6.5000000000000009 1019.6400000000001 19.245000000000001 3.5000000000000004 54008.500000000007 61778.500000000007 5 5.5000000000000009 48.000000000000007 6 45002.000000000007 48.000000000000007 0.42858367416913623 7 8 0.28958028104785788 9 13168.500000000002 10 8.5000000000000018 11 12 13 inf 14 15 7.5000000000000009 0.34722685939498626 91010.000000000015 43.500000000000007 16 2.5000000000000004 17 18 19 48.000000000000007 8800.5000000000018 221.50000000000003 19.500000000000004 20 86002.000000000015 67567.510000000024 2806.5000000000005 21 48.000000000000007 22
decision_type=9 9 2 9 9 2 9 8 2 8 2 2 10 2 8 2 10 2 2 8 2 2 9 10 2 9 2 2 2 9 9 2 9 10 9 10 9 9 9 8 9 9 10 2 2 2 9 8 9 9 9 2 8 2 2 9 2 2 8 9 2 9
left_child=1 5 4 7 9 8 10 21 19 13 39 -6 28 -2 25 16 32 22 24 49 -8 27 30 40 54 50 38 -4 37 -21 -9 -14 56 34 -20 45 -16 -5 -15 -3 -13 -29 43 -32 -26 -36 -28 -12 -23 55 -10 52 -38 -42 -11 -1 -7 -39 -25 -27 -48 -17
right_child=2 6 3 12 11 15 20 17 14 18 47 23 31 26 36 61 -18 -19 33 29 -22 48 -24 58 44 59 46 41 -30 -31 42 -33 -34 -35 35 -37 51 57 -40 -41 53 -43 -44 -45 -46 -47 60 -49 -50 -51 -52 -53 -54 -55 -56 -57 -58 -59 -60 -61 -62 -63
leaf_value=-1.7442581938127959 -1.7634590203268445 -1.7648266956850871 -1.7207518982534111 -1.7024158039831414 -1.7357418110519791 -1.7593622218765397 -1.7793924231396319 -1.7018573593423745 -1.7176692091944137 -1.7298352110374182 -1.7840094355303511 -1.7430040785463836 -1.6764592298507717 -1.7487787593930579 -1.7553076752171406 -1.7297497826950545 -1.7523586187699931 -1.727155231925372 -1.7510492414990997 -1.742803546554081 -1.7926934364904887 -1.7498597448391053 -1.7098203758813819 -1.6635292977816967 -1.7016859314393209 -1.7441943782935627 -1.7577431802091692 -1.7299869892949893 -1.6515740987596572 -1.7572711893777864 -1.6933412460485808 -1.6423640937353581 -1.7747183402076518 -1.7339087607118517 -1.7134022572699024 -1.6921881120498856 -1.6743548582747909 -1.656562367545124 -1.7242753257017422 -1.7407341757401829 -1.7011498541870214 -1.6900797884809609 -1.6577863940873205 -1.6693317962772938 -1.7334491215115571 -1.7504323966469189 -1.7446041226638822 -1.7755163180155262 -1.7265579701512384 -1.7671638224232302 -1.7408962457185304 -1.7011863560937204 -1.7273165445293284 -1.7232509412365629 -1.7429600744154703 -1.7656446100133727 -1.770648552642125 -1.68366562076618 -1.6927763725074565 -1.7602296996192071 -1.7280350193674463 -1.7524810396925519
leaf_weight=404.46385361254215 553.25102472305298 1848.1663451343775 1030.1523984521627 328.24040038883686 345.65569268167019 1315.8641502708197 1640.3186175525188 784.19294425845146 241.92112554609776 754.9150615632534 1741.6554270535707 100.70582064986229 138.0603606402874 225.64161318540573 106.63711585104465 163.80470576882362 1089.7177460044622 261.86037324368954 92.629163354635239 1656.7243276834488 4264.6012496501207 253.2789248675108 916.95299854874611 113.5779932141304 200.02346582710743 694.34013184905052 397.27058070898056 116.85913524031639 168.85261657834053 1042.0149888545275 486.11381095647812 491.66651284694672 2373.2752670943737 411.4047309756279 789.24085506796837 236.74701696634293 33.316211342811584 228.92275521159172 735.22820940613747 187.52988657355309 687.90404556691647 311.07750363647938 164.18329907953739 314.23244789242744 167.84303441643715 72.185124576091766 1338.4535511434078 3826.3163936138153 429.82960543036461 1245.8243877887726 453.04999515414238 172.38615414500237 768.54442074894905 219.07932913303375 1229.9234687387943 281.79962094128132 1110.6665758639574 189.92764420807362 348.68443916738033 468.82471643388271 324.20207174122334 631.8722355812788
leaf_count=3205 4384 14645 8163 2601 2739 10427 12998 6214 1917 5982 13801 798 1094 1788 845 1298 8635 2075 734 13128 33793 2007 7266 900 1585 5502 3148 926 1338 8257 3852 3896 18806 3260 6254 1876 264 1814 5826 1486 5451 2465 1301 2490 1330 572 10606 30320 3406 9872 3590 1366 6090 1736 9746 2233 8801 1505 2763 3715 2569 5007
internal_value=-1.74915 -1.76756 -1.71713 -1.69837 -1.73037 -1.75526 -1.78054 -1.70831 -1.74738 -1.7356 -1.77397 -1.70895 -1.66658 -1.74351 -1.73664 -1.76419 -1.76643 -1.69894 -1.72841 -1.7542 -1.78893 -1.72094 -1.69617 -1.70238 -1.73456 -1.7438 -1.73986 -1.71441 -1.67718 -1.7484 -1.68958 -1.64984 -1.76962 -1.71939 -1.71437 -1.71161 -1.72433 -1.68297 -1.72977 -1.76261 -1.71008 -1.69915 -1.68018 -1.68391 -1.71618 -1.71651 -1.74457 -1.77817 -1.73488 -1.7623 -1.73248 -1.72117 -1.72512 -1.70695 -1.73797 -1.75315 -1.76447 -1.67073 -1.68559 -1.7507 -1.74142 -1.7476
internal_weight=43722.6 27763.6 15959 6614.4 9344.57 14255 13508.6 5068.73 7569.85 7528.96 7603.67 1815.61 1545.67 3574.05 2939.02 6685.2 5889.52 2927.54 3954.91 4630.83 5904.92 2141.2 2665.68 1469.95 2352.71 1858.14 3020.8 1458.09 915.943 2698.74 1748.72 629.727 4799.81 1602.21 1190.8 1098.17 1080.88 747.091 960.87 2035.7 1007.69 427.937 964.53 800.346 367.867 861.426 2059.93 5567.97 683.109 1932.09 694.971 974.247 801.861 906.983 1984.84 686.263 2426.53 418.85 462.262 1163.16 1662.66 795.677
internal_count=346461 220001 126460 52413 74047 112958 107043 40165 59984 59660 60252 14387 12248 28321 23289 52974 46669 23198 31339 36695 46791 16967 21123 11648 18643 14724 23937 11554 7258 21385 13857 4990 38034 12696 9436 8702 8565 5920 7614 16131 7985 3391 7643 6342 2915 6826 16323 44121 5413 15310 5507 7720 6354 7187 15728 5438 19228 3319 3663 9217 13175 6305
cat_boundaries=0 1 2 4 5 6 8 9 11 12 13 15 17 18 20 22 24 26 28 29 31 33 35 37
cat_threshold=4095 3968 2093056 2 12 112 2312012380 9806 4 3273163415 11279 4 3584 1140916641 410400 1140916705 200960 39845888 3332180420 467520 33849379 443264 1276185186 479619 1140934056 164768 1082607841 240056 4 20971540 42098 3260582738 69878 2191164018 13542 2147909898 4
is_linear=0
shrinkage=1


Tree=1
num_leaves=63
num_cat=15
split_feature=3 3 1 35 35 1 6 3 2 1 10 35 1 31 35 6 35 6 9 6 24 6 9 9 6 9 16 10 31 35 9 9 32 9 31 10 35 9 6 9 35 10 1 24 9 33 32 10 35 2 1 20 35 2 9 32 6 14 9 2 24 32
split_gain=9100.07 1858.62 929.588 898.543 442.185 350.693 301.76 226.032 165.696 151.499 129.047 98.6708 89.6157 86.3273 86.2815 82.4952 81.5212 78.981 75.4512 74.7907 63.0566 62.1442 55.491 54.9259 52.6788 48.0437 46.9147 45.4093 44.8925 44.0717 41.9931 39.4839 37.3739 36.8403 35.3791 35.0546 34.8497 34.0876 33.9176 33.2196 33.1957 31.6341 30.8798 28.8389 28.7272 28.4647 32.2068 27.9205 35.0493 27.8398 27.4896 27.0929 26.7624 26.6267 30.8171 26.5955 26.4818 26.2886 25.702 25.496 25.3592 25.1625
threshold=0 1 9.7350000000000012 0.24924621212121215 0.23333462964403309 16.265000000000004 49553.000000000007 2 700.86500000000012 7.6400000000000015 20.365000000000006 0.073536550542547138 21.200000000000003 48.000000000000007 0.098153828675301077 60004.000000000007 0.27174919484702098 61778.500000000007 3 82004.000000000015 1.0000000180025095e-35 75000.500000000015 4 5 57555.000000000007 6 22272.500000000004 17.375000000000004 48.000000000000007 0.079998720040958704 7 8 1.0000000180025095e-35 9 48.000000000000007 22.455000000000002 0.2983418158418159 10 42004.500000000007 11 0.36000072000288003 9.3050000000000015 21.540000000000003 2.5000000000000004 12 684.50000000000011 1.0000000180025095e-35 22.785000000000004 0.38170367226178192 361.68000000000006 12.15 4115.0000000000009 0.07200418957842368 404.98000000000008 13 inf 24006.000000000004 10.500000000000002 14 547.95500000000015 1.0000000180025095e-35 inf
decision_type=9 9 2 2 2 2 2 9 2 2 2 2 2 2 2 2 2 2 9 2 10 2 9 9 2 9 2 2 2 2 9 9 10 9 2 2 2 9 2 9 2 2 2 10 9 2 10 2 2 2 2 10 2 2 9 8 2 2 9 2 8 8
left_child=2 3 9 7 11 8 16 14 18 24 20 37 47 21 39 55 23 28 -5 36 38 27 -16 -4 -1 45 -19 -8 35 -22 -13 -31 -18 -10 44 -7 -14 51 61 -2 53 -24 -32 -44 -34 -12 -47 48 -6 -43 -15 -3 -27 -20 -55 -11 -37 -49 -29 -42 -23 -9
right_child=1 4 6 5 12 17 13 10 33 15 25 30 19 50 22 -17 32 26 40 -21 29 60 41 -25 -26 52 -28 58 -30 31 42 -33 34 -35 -36 56 -38 -39 -40 -41 59 49 43 -45 -46 46 -48 57 -50 -51 -52 -53 -54 54 -56 -57 -58 -59 -60 -61 -62 -63
leaf_value=-0.033008560983423321 -0.015794550182977152 0.063544887331621405 -0.0006584903298938301 0.0091057144072526821 0.044257875254045211 0.037873845958333513 -0.021184592160497354 0.01121999434275734 -0.015256075320059785 -0.023059011445690114 0.026020112188935782 0.010846300075793229 0.069158917153222907 -0.009786902288657728 0.03026554311628309 -0.033804460622357216 0.022099661317799949 0.042954167453927418 0.032921558457520025 0.056928466065282346 -0.020873812507983973 -0.017411357825159145 -0.0004120815744251598 -0.015679271812280082 -0.045258110750393481 -0.016064905702219818 0.020872961130764103 -0.018088609803884739 0.06181341079820727 0.0040312153299769948 0.038081893152796122 -0.0099688242720289699 0.0099342851020730923 0.0078744844162966718 0.0307806046651352 0.024984540786909492 0.091384981011989108 -0.0030156322020789359 0.00024059302084159561 0.0090674400551239275 0.047287069658480091 0.025423050338259281 0.06031775404763632 0.035004434398933339 -0.0056812358006647131 0.044907272726128017 0.006067486859029983 0.051669027052277217 0.072343720530316943 0.010033131386258623 0.01049772603005358 0.018031220807807526 0.0074779719420810659 0.0027228253038567157 0.025661810222766496 -0.0028806423652519191 0.058954233877189455 0.083652006273658985 -0.0060827170187836462 0.026859798176530891 -0.027401799726198751 0.052462709150901767
leaf_weight=1280.6790311038494 148.07024657726288 43.315390646457672 1250.6012152954936 540.56837271153927 422.35526801645756 725.57178650796413 2138.3224655091763 570.02385571599007 222.8920750617981 2148.1932493001223 674.90619541704655 123.04615151882172 234.62367664277554 445.34080031514168 1222.96661901474 3322.4370371997356 307.40621747076511 517.28879001736641 907.61064527928829 292.37368024885654 500.38714838773012 821.37993563711643 257.74371118843555 1188.1408997178078 2789.1364451870322 138.3698900565505 449.64042544364929 723.41855980455875 582.3298504948616 839.12935556471348 679.4781296402216 1239.2845479622483 470.49478532373905 651.88270969688892 103.74991901963949 65.4232107847929 710.28386846184731 179.75887118279934 1790.3849997073412 931.79325358569622 427.57742486894131 692.2719399034977 433.59638673067093 151.94772565364838 751.03862217068672 60.270188800990582 466.51457742601633 105.48061855137348 150.72339656949043 510.58948010206223 267.25373823940754 133.38592354953289 945.85075090825558 202.32978960871696 680.20688121020794 176.7302852421999 466.23656617105007 164.36797234416008 1233.5913484767079 237.65725184977055 2802.2321776300669 39.548715353012085
leaf_count=10378 1170 340 9959 4217 3217 5578 17149 4488 1754 17322 5302 954 1769 3550 9566 26958 2428 3997 7040 2202 3982 6614 2025 9482 22791 1096 3488 5795 4449 6635 5207 9813 3722 5120 812 503 5280 1411 14169 7342 3306 5413 3317 1166 5958 474 3674 801 1136 4010 2113 1047 7459 1575 5290 1410 3575 1242 9869 1842 22562 311
internal_value=3.13259e-06 0.0231638 -0.0224385 0.0163134 0.0547503 0.0307983 -0.0134328 0.00755792 0.0210412 -0.0340492 0.00238826 0.0363288 0.0704623 -0.0188306 0.0174842 -0.0287493 -0.00225456 0.0442553 0.0266312 0.0790281 -0.00212395 -0.0203678 0.0223332 -0.00804352 -0.0414035 0.0122264 0.032686 -0.0161478 0.0503366 -0.00755229 0.0423547 -0.00434508 0.00639239 0.00189645 0.00274901 0.0450207 0.0858662 0.0128635 0.00370892 0.00559608 0.0303289 0.0153789 0.0449782 0.053749 0.00036817 0.0190628 0.0105112 0.057889 0.0516446 0.0188904 -0.00217929 0.0276248 0.00443251 0.0269084 0.0207245 -0.0215251 0.0547741 0.0711502 -0.0106443 0.0399894 -0.0251372 0.0138958
internal_weight=43750.2 21530.1 22220.1 17705.3 3824.74 6677.22 12503 11028.1 3870.73 9717.18 7264.67 1744.53 2080.21 8431.54 3763.44 5647.36 4071.43 2806.49 2995.95 1237.28 4978.76 7718.94 2683.57 2438.74 4069.82 2285.91 966.929 4095.33 1839.56 2578.8 1388.07 2078.41 1632.69 874.775 1325.28 1257.23 944.908 356.46 2399.96 1079.86 2455.38 1460.61 1265.02 585.544 1221.53 1201.69 526.785 842.927 573.079 1202.86 712.595 176.701 1084.22 1790.15 882.537 2324.92 531.66 269.849 1957.01 665.235 3623.61 609.573
internal_count=346624 167752 178872 138663 29089 51734 100013 86929 30144 78859 57403 13442 15647 67652 29526 45690 32361 21590 23270 9251 39398 61989 21014 19441 33169 18005 7485 32813 14105 20430 10644 16448 12920 6874 10492 9656 7049 2798 18968 8512 19053 11448 9690 4483 9680 9450 4148 6396 4353 9423 5663 1387 8555 13905 6865 18732 4078 2043 15664 5148 29176 4799
cat_boundaries=0 1 2 3 5 7 9 11 13 15 17 19 21 23 25 27
cat_threshold=3 12 8 1140919680 465281 2303755842 78871 2274689623 21639 2149483034 1215 1107296673 443296 2346191424 21716 151047393 168240 135413776 48538 75580449 135425 14190246 270470 34652166 16488 1279624553 334144
is_linear=0
shrinkage=0.05


Tree=2
num_leaves=63
num_cat=4
split_feature=4 4 1 35 35 6 1 21 4 1 6 21 24 35 21 1 31 21 6 35 21 31 21 21 21 6 35 6 24 6 1 30 6 6 21 22 21 1 32 21 6 35 20 32 36 21 21 4 32 6 33 1 16 6 6 31 1 17 24 27 6 33
split_gain=8248.58 1290.72 1208.54 613.865 453.612 318.456 170.803 150.98 146.266 145.929 127.541 115.782 111.218 107.917 102.939 101.679 84.0398 87.4607 82.9267 73.1997 70.6066 69.4756 69.2489 66.8211 58.1332 52.1551 51.8127 51.6362 51.5868 50.0191 48.1345 44.085 42.7963 41.8436 40.0276 38.0645 36.7809 36.033 35.1697 34.3402 33.9153 33.3549 32.0666 31.7964 31.4318 31.3309 29.9539 29.2752 28.3779 27.8954 27.6757 27.5183 27.055 26.4516 25.904 24.2697 24.1592 24.0627 24.0217 23.8458 27.2533 23.4248
threshold=0 1 9.7350000000000012 0.24924621212121215 0.26561892653537195 49553.000000000007 16.425000000000001 3.5000000000000004 2 7.6400000000000015 70000.500000000015 3.5000000000000004 1.0000000180025095e-35 0.079998720040958704 3.5000000000000004 22.425000000000001 48.000000000000007 4.5000000000000009 61008.620000000003 0.26095409642137662 2.5000000000000004 48.000000000000007 2.5000000000000004 2.5000000000000004 7.5000000000000009 65851.000000000015 0.27273567778375479 54008.500000000007 1.0000000180025095e-35 70000.500000000015 21.200000000000003 224041.50000000003 65002.000000000007 73004.000000000015 2.5000000000000004 15341.500000000002 6.5000000000000009 11.460000000000003 inf 4.5000000000000009 90000.500000000015 0.11110672837558291 12402.500000000002 inf 0.06136534139742162 5.5000000000000009 4.5000000000000009 3 1.0000000180025095e-35 82004.000000000015 684.50000000000011 21.720000000000002 13695.500000000002 81998.000000000015 71002.000000000015 48.000000000000007 13.020000000000001 66.250000000000014 2.5000000000000004 91.750000000000014 67567.510000000024 684.50000000000011
decision_type=9 9 2 2 2 2 2 8 9 2 2 8 8 2 8 2 2 10 2 2 8 2 8 8 10 2 2 2 10 2 2 10 2 2 8 10 10 2 8 8 2 2 10 8 2 8 8 9 10 2 2 2 2 2 2 2 2 10 10 8 2 2
left_child=2 3 9 7 13 11 10 25 16 27 23 26 44 58 49 22 17 33 38 36 51 24 -6 -5 29 41 -4 -1 -19 -14 53 45 55 -7 -10 50 -13 -21 46 59 -23 -2 -41 56 -9 -32 -11 -43 -39 -8 -24 -15 -34 -22 -36 -16 -28 61 -3 -17 -61 -46
right_child=1 4 5 6 15 8 14 12 34 18 -12 19 21 20 32 39 -18 28 -20 37 30 40 35 -25 -26 -27 43 -29 -30 -31 31 -33 52 -35 54 -37 -38 48 -40 42 -42 47 -44 -45 57 -47 -48 -49 -50 -51 -52 -53 -54 -55 -56 -57 -58 -59 -60 60 -62 -63
leaf_value=-0.031362469737847322 -0.0058871297245555454 0.017964433607377647 -0.014635537883901368 0.01577395256172049 0.035239017454942866 -0.01168142080284554 0.031731454477325415 0.016476421315499337 -0.029413068957190636 -0.027072310317181172 0.0041941572914785162 -0.0038034750270187498 0.0079547519557743706 0.0066738063863962527 0.050975026369780956 0.044482133855811734 0.0087308256272434024 0.0086192037606110435 -0.033212399917976997 0.0030487460473113876 0.04086659894894721 0.033988001574159488 0.072198707133996773 0.033104930154044102 0.018264185724621126 -0.0079667878508902883 -0.0084184057873717966 -0.044120113597310419 -0.0092266129232211735 -0.006467055741905061 0.046959715350341255 0.029667811248165699 0.058521293428007992 -0.023628906561397656 -0.01408342975701944 0.040928578518853169 0.014819564444497191 0.043827894448367127 0.00059102825642110739 0.11442345900988156 0.010627422622390501 0.0021566791322521336 0.080690398524327023 0.024246382172106874 0.030182122085087894 0.071165372774069161 -0.01478625307858669 0.017578692343735679 0.018586555430081367 0.0053874380139453644 0.055112258602004985 0.034880080094241935 0.027698011574996902 0.024190157571387646 -0.023101014829779082 0.069006488503511265 0.0087026878069751817 0.03940865806420988 -0.0081652901585858081 0.087246051725233476 0.055515619024133947 0.010970949431226602
leaf_weight=1096.9052985683084 478.78376866877079 405.56761409342289 1351.7315802797675 785.03311143815517 319.19714380800724 1505.894048973918 770.92010939121246 1016.7437025457621 1365.9685815647244 1355.269429422915 707.29589879512787 1235.5528340861201 1375.6860878318548 221.42032910138369 575.85487443208694 84.522614181041718 539.01815242320299 585.56466064602137 3212.5392552912235 314.85288036614656 694.29775398224592 344.95559474825859 597.07766738533974 1907.7373744472861 671.30318338423967 1289.6792123094201 649.2649834305048 2864.133566737175 1312.9138240814209 1067.9600552693009 267.4508323520422 167.5664049834013 98.262054532766342 1427.6020607948303 1400.545065574348 188.97962746024132 337.56854196637869 136.54365458339453 177.43289777636528 94.935746699571609 282.70138497650623 653.35256437957287 273.14871096611023 120.81202667951584 449.6460390612483 267.28522795438766 782.55610709637403 591.35081566125154 603.53231347352266 115.548131108284 392.97054493427277 141.87843617796898 258.41810239851475 361.64098039269447 1846.1942480504513 276.0807408541441 301.8282231092453 354.66579116135836 112.31651927530766 171.7243295609951 111.68293963372707 245.20534737408161
leaf_count=9090 3785 3148 10849 5988 2351 12099 5793 7923 11195 11116 5503 9839 10742 1680 4250 600 4237 4685 26705 2490 5224 2656 4320 14454 5237 10206 5142 24167 10570 8420 1980 1245 731 11622 11353 1374 2686 1051 1419 665 2208 5134 1912 939 3480 1954 6411 4582 4687 888 2850 1053 1945 2733 15111 2021 2357 2746 875 1207 805 1902
internal_value=-7.29978e-05 0.0244725 -0.0192826 0.016879 0.0466992 -0.0104728 0.0300089 0.00871966 -0.015649 -0.0332623 0.0230893 -0.000243084 0.0134306 0.0327606 0.0412387 0.0633746 -0.00997664 -0.0120841 -0.0280134 0.00702617 0.0377558 0.00829001 0.0558985 0.0280524 0.00523202 -0.000362298 -0.00812544 -0.0405872 -0.00372227 0.00165191 0.0419021 0.0520462 0.0507305 -0.0174957 -0.0221841 0.0614917 0.000192753 0.0172162 -0.0207996 0.0785929 0.0234662 0.00532811 0.0893908 8.41448e-05 0.0227419 0.0590588 -0.022575 0.00964214 0.0232436 0.0282976 0.0654167 0.0176892 0.0361895 0.0351552 -0.0192111 0.0568184 -0.00298505 0.0288116 0.0122975 0.0677905 0.074742 0.0234027
internal_weight=43715.1 19190.8 24524.2 14317.2 4873.66 15035.4 5495.15 8822.03 9983.7 9488.84 3400.07 5051.69 5808.87 2639.42 2095.08 2234.24 5370.99 4831.97 5527.8 2628.05 2121.54 3742.61 1498.22 2692.77 3114.95 3013.17 2423.64 3961.04 1898.48 2443.65 1758.24 702.302 1208.62 2933.5 4612.71 1179.03 1573.12 1054.93 2315.26 736.014 627.657 1723.49 368.084 1071.91 2066.26 534.736 2137.83 1244.7 740.076 886.468 990.048 363.299 356.68 1055.94 3246.74 851.936 951.093 1049.52 517.884 367.93 283.407 694.851
internal_count=346390 146570 199820 110594 35976 120912 41573 69021 80872 78908 25945 40040 45314 19892 15628 16084 43213 38976 45651 20753 15869 29263 10895 20442 24399 23707 19287 33257 15255 19162 13136 5179 8947 23721 37659 8544 12525 8228 18946 5189 4864 13501 2577 8438 16051 3934 17527 9716 5738 6681 7170 2733 2676 7957 26464 6271 7499 8128 4023 2612 2012 5382
cat_boundaries=0 1 3 4 5
cat_threshold=2047 522240 2 1792 14336
is_linear=0
shrinkage=0.05


Tree=3
num_leaves=63
num_cat=13
split_feature=3 3 1 35 35 6 31 2 1 1 21 21 24 21 6 21 21 9 6 31 10 21 9 21 9 10 6 0 6 31 35 6 9 21 9 1 10 9 10 24 9 32 9 6 36 21 9 9 9 35 22 21 32 10 33 27 30 12 32 31 30 36
split_gain=7360.87 1313.18 843.42 704.449 349.901 247.828 183.899 172.135 162.175 151.464 104.166 99.8031 86.4544 85.2362 83.1145 82.5237 80.9413 79.5054 72.4407 72.3704 57.618 57.1832 56.7951 56.5359 56.4085 52.9443 50.2971 49.8972 49.0906 47.3488 45.6825 45.399 42.1166 40.522 38.8208 38.6861 38.1306 37.3814 37.379 35.2048 35.1714 35.1614 34.0907 33.2439 33.0611 32.4254 30.4063 29.8458 29.5751 29.2346 29.1898 28.9133 28.8373 28.7531 28.3738 27.8246 27.6807 26.6605 26.1641 25.8628 36.5643 32.4045
threshold=0 1 9.7350000000000012 0.26561892653537195 0.24685772116903637 45604.000000000007 48.000000000000007 695.46500000000015 20.495000000000001 7.6400000000000015 2.5000000000000004 6.5000000000000009 1.0000000180025095e-35 4.5000000000000009 55602.470000000008 2.5000000000000004 3.5000000000000004 2 53701.200000000004 48.000000000000007 15.385000000000003 3.5000000000000004 3 2.5000000000000004 4 17.375000000000004 80000.020000000004 1712.5000000000002 54008.500000000007 48.000000000000007 0.41178513071895428 78003.000000000015 5 5.5000000000000009 6 14.645000000000001 29.765000000000004 7 20.545000000000005 2.5000000000000004 8 inf 9 75000.500000000015 0.022798047619047624 7.5000000000000009 10 11 12 0.23809917498531544 22239.500000000004 4.5000000000000009 inf 22.785000000000004 694.50000000000011 88.250000000000014 231623.50000000003 1.0000000180025095e-35 inf 48.000000000000007 63835.000000000007 0.12287263904975516
decision_type=9 9 2 2 2 2 2 2 2 2 8 10 8 10 2 8 8 9 2 2 2 8 9 8 9 2 2 2 2 2 2 2 9 10 9 2 2 9 2 10 9 8 9 2 2 10 9 9 9 2 8 10 8 2 2 8 10 2 8 2 8 2
left_child=2 4 9 6 11 16 10 15 17 28 44 14 27 19 22 37 41 -5 58 43 -13 42 52 57 38 -15 -8 -12 -1 39 40 45 36 -28 -27 -26 -29 -6 -17 -16 -18 48 -10 -7 -3 -14 -9 -22 -4 -36 -33 -48 54 59 55 -2 -23 -19 -11 60 -25 -61
right_child=1 3 5 8 7 13 26 46 21 18 12 20 31 25 29 24 30 23 -20 -21 47 56 -24 53 35 34 33 32 -30 -31 -32 50 -34 -35 49 -37 -38 -39 -40 -41 -42 -43 -44 -45 -46 -47 51 -49 -50 -51 -52 -53 -54 -55 -56 -57 -58 -59 -60 61 -62 -63
leaf_value=-0.030737591886863088 -0.00036373093226223907 -0.022531938971547136 0.0030794461150512229 0.025468442835084332 0.030285552421294101 -0.018820840269968303 0.048342928628663795 -0.012463788160538111 0.013738795374968383 -0.020340782480240446 -0.013315815462327771 -2.923991158756082e-05 0.016529429948705925 -0.016640339763974121 -0.0051431341505353313 0.029244013178976531 0.011136367353185274 0.022037599168282993 -0.030815593994666518 -0.0039568239244988541 0.027199774739220091 0.073576300504385822 -0.0044530965326616545 0.051773026373581534 0.010905028230596588 -0.013848650911634617 0.022807486701034278 0.037680874831343331 -0.043360516842827691 0.0067042907881047567 0.033206073232497302 0.014607140315918725 0.02328576208715101 0.04798347212280453 -0.0027062664933177223 0.029961795923738557 0.080034424133609103 0.007783391239583673 0.045966967099246109 -0.017317563515315434 -0.0032752547299212766 0.012965042057959618 0.054432508330590858 -0.026919440754375995 0.0062623827897163743 0.037099726156474042 -0.00060576199850609911 0.0075996890310404816 -0.014533672149812674 0.016644452696172984 -0.0045879036579426977 0.020075515251555792 0.036651610110307105 0.060251731102281304 -0.0029886089761429939 0.017962885300812272 0.051015540389546268 0.045832323810428136 0.0011655981396954309 0.047230352512247858 0.026954259345702294 0.079581814431773201
leaf_weight=1065.3164366185665 272.5841254517436 113.24652555584908 295.75792076438665 684.36259064078331 239.18034960329533 2998.331637211144 648.11995153129101 275.24478913843632 86.193118646740913 1557.4205941334367 65.595298752188683 505.20809641480446 1078.2157934680581 1460.5191923975945 1931.249143473804 694.32300308346748 827.84785214811563 282.24850107729435 3716.9675618931651 603.96888803690672 620.6607081964612 774.95124290883541 850.81122533231974 305.86133892834187 506.57212384045124 534.22792948782444 588.5592418089509 683.48275835812092 2780.6246289163828 590.01905462890863 144.14733881503344 396.72884280979633 960.75176952779293 219.41397300362587 670.13677994906902 561.51623282581568 57.621688827872276 814.86646971851587 644.15695906430483 857.4482953697443 851.6196416541934 165.78982300311327 453.01541577279568 2194.6853670701385 832.63707231730223 232.97157855331898 469.72061522305012 319.68986715376377 1259.3535870537162 275.39482966065407 395.5061974003911 263.9711044728756 107.1488579288125 587.66243806481361 335.57141505926847 862.2756475135684 164.88818980753422 201.94619111716747 155.54421681165695 272.23734937608242 288.26463569700718 108.15302830934525
leaf_count=9031 2130 895 2378 4981 1799 24616 4732 2153 596 12950 506 3966 8200 11964 15359 5162 6514 2086 31567 4830 4789 5206 6686 2198 3842 4349 4389 5115 24231 4607 1111 3046 7211 1604 5460 4154 425 6163 4772 6882 6762 1303 3125 18354 6384 1742 3655 2485 10160 2216 3046 2029 829 4175 2625 6712 1125 1491 1240 1935 2086 755
internal_value=-7.57483e-05 0.0201249 -0.0208825 0.0329833 0.00860782 -0.0122973 0.0223965 0.0196193 0.0488368 -0.0322722 0.0176895 0.00183374 0.0213242 -0.0168211 -0.00109264 0.0249175 -0.00114605 0.0416144 -0.0268951 -0.0203383 0.0135896 0.0621715 0.00596313 0.0466616 0.0300274 -0.00988686 0.0379672 0.0294759 -0.039864 -0.00616386 0.00619381 0.0144745 0.0311252 0.0296443 -0.0032212 0.0207295 0.0404284 0.0132507 0.0370156 -0.00888644 0.00387537 -0.008924 0.0491919 -0.0222435 0.00281496 0.0201844 0.00144666 0.0209064 -0.0112576 0.00289915 0.00502443 0.00674314 0.0115359 0.0515164 0.00978415 0.013561 0.0696182 0.0319618 -0.0183879 0.0462488 0.0397312 0.0564286
internal_weight=43762.5 22204.9 21557.7 10482.6 11722.2 12281.8 6272.85 4469.55 4209.78 9275.87 4816.76 7252.67 3870.87 8737.26 5807.11 3460.62 3544.52 2730.74 5429.93 5796.99 1445.56 1479.05 2428.39 2046.37 2406.57 2940.28 1456.09 1767.45 3845.94 3378.72 1823.61 2103.42 1701.86 807.973 1479.76 1068.09 741.104 1054.05 1338.48 2788.7 1679.47 1720.9 539.209 5193.02 945.884 1311.19 1008.94 940.351 1555.11 945.532 792.235 733.692 1577.58 1562.18 1470.43 1134.86 939.839 484.195 1712.96 974.516 594.126 380.39
internal_count=346889 167853 179036 77054 90799 100017 47295 33729 29759 79019 36570 57070 29291 71789 45830 25892 28228 19707 45757 47800 11240 10052 18982 14726 17930 23989 10725 13257 33262 26848 14387 16034 12751 5993 12025 7996 5540 7962 9934 22241 13276 13841 3721 42970 7279 9942 7837 7274 12538 7676 6092 5684 12296 11149 11467 8842 6331 3577 14190 6974 4284 2690
cat_boundaries=0 1 2 4 6 8 10 12 14 16 18 20 22 24
cat_threshold=3 4 1140934817 510896 2187232794 9406 2308849694 42006 22020632 74763 1141196457 365032 21528840 534 59508372 1165 1073922533 393521 1141556385 233840 2174518874 13535 2182873443 275458
is_linear=0
shrinkage=0.05


Tree=4
num_leaves=63
num_cat=26
split_feature=4 4 4 36 6 6 36 6 4 21 4 1 9 21 21 21 21 21 9 36 21 1 10 10 9 36 9 4 9 10 36 9 7 9 32 12 10 36 9 36 1 36 21 37 9 8 9 9 9 9 21 8 4 9 21 24 9 30 10 10 9 1
split_gain=6773.4 1047.62 986.902 357.982 342.426 254.603 198.901 176.76 108.701 101.935 101.384 100.35 87.2992 81.0893 70.7864 66.8305 65.5836 65.2005 58.741 54.8113 53.2197 53.1677 53.0117 49.2604 47.9346 47.0057 46.6023 46.6296 46.296 43.7597 42.1563 40.0923 35.5284 42.8843 35.4049 33.2816 33.2559 31.8946 31.6239 31.9831 28.7864 28.5568 28.4546 28.5623 27.5534 26.4148 26.3362 26.1779 26.0307 25.9022 25.5168 25.455 26.6582 25.3003 27.131 24.9745 27.2587 24.7632 24.2776 23.9283 23.7959 23.309
threshold=0 1 2 0.079521450369155047 65002.000000000007 51000.80000000001 0.096161714285714309 50477.000000000007 3 3.5000000000000004 4 7.6750000000000016 5 3.5000000000000004 3.5000000000000004 4.5000000000000009 4.5000000000000009 2.5000000000000004 6 0.033377527272727282 2.5000000000000004 7.5000000000000009 19.885000000000002 19.245000000000001 7 0.10854971282238889 8 9 10 18.785000000000004 0.12469072674418606 11 12 13 inf 2.5000000000000004 22.145000000000003 0.028520166666666669 14 0.043706254346314331 15.805000000000001 0.056444863636363647 4.5000000000000009 0.54128637447823513 15 16 17 18 19 20 11.500000000000002 21 22 23 7.5000000000000009 2.5000000000000004 24 236599.00000000003 15.565000000000003 19.785000000000004 25 15.805000000000001
decision_type=9 9 9 2 2 2 2 2 9 8 9 2 9 10 10 8 8 8 9 2 8 2 2 2 9 2 9 9 9 2 2 9 1 9 8 2 2 2 9 2 2 2 8 2 9 9 9 9 9 9 10 9 9 9 10 10 9 10 2 2 9 2
left_child=1 5 4 16 6 9 15 21 29 25 -5 -9 -12 51 31 32 38 -14 30 60 -10 -3 -19 -17 -25 46 -21 -28 -22 -7 45 -8 48 -34 42 41 -13 -37 -4 -40 47 55 43 -23 -27 58 -1 -16 -2 -31 59 -6 -53 -43 -55 56 -18 -24 -11 -29 -15 -33
right_child=2 7 3 10 13 8 14 11 20 18 12 36 17 19 40 23 35 22 -20 26 28 34 57 24 -26 44 27 50 -30 49 -32 61 33 -35 -36 37 -38 -39 39 -41 -42 53 -44 -45 -46 -47 -48 -49 -50 -51 -52 52 -54 54 -56 -57 -58 -59 -60 -61 -62 -63
leaf_value=0.003299361937891777 0.0065406496293342921 -0.031356140665129331 -0.0074776053808441965 0.067608741346510307 0.025001139269873081 -0.01139346323888446 0.0095663075533412752 -0.041995059593832207 -0.026439839428795627 -0.0043085302382437985 0.029446790992200152 -0.031907269984788648 0.033187517709101368 0.010876305180499717 0.035709165597290614 0.012009210801284436 0.031802486326408134 0.045348439880838816 -0.0039565506705983907 -0.0058644240064857677 -0.0087832846843024538 -0.024588610478380065 0.066174456913128746 0.034680340806662414 0.011885750681625402 0.014367041419512089 0.004814973684953143 0.014134223580638422 -0.019913029164119401 -0.0087592486790951645 0.024934147354568399 0.020409088246577375 0.025494792644007509 0.0057468652582848877 0.0055986393383217325 0.013837874750901836 -0.020373361108819512 0.052509646897675157 0.0070667751234529388 0.025786865130067678 0.04121888199293694 0.010426699844974824 -0.009575410172576182 0.0081838452312796885 -0.0043837134107756158 0.027101626807845166 -0.016351344321687503 0.017484898265068737 -0.010074709441843997 0.0068787002849961436 0.052018797331994077 0.0011967855094209504 -0.0099598605677613736 0.035110961013339388 0.065865022620933578 0.00066727291351906574 0.0068650512004593336 0.040931336320223929 0.0097619466744623476 0.028472534296998593 -0.012317983159774681 0.033293723092112426
leaf_weight=199.47048269957304 545.18896901607513 714.35501416027546 143.08107444643974 621.74285311996937 66.171661131083965 1914.3940216302872 549.40737491101027 2826.2079689651728 1575.6843375638127 481.21960435062647 898.34182104468346 3428.2479814663529 472.13745348155499 149.81392288953066 624.92110133171082 1195.7122801616788 394.96029345691204 855.88892970979214 1025.1040746346116 299.98131351172924 1594.2919317483902 1044.2462220788002 751.35853976011276 685.74709887802601 399.1171488314867 243.27595942467451 721.0133196040988 784.28288785368204 2466.063973672688 412.11873865127563 418.89968565106392 773.08128741383553 405.66601099818945 871.84968400746584 181.52292127162218 66.990492627024651 764.29529705643654 261.22666037082672 396.68924730271101 537.06535477936268 964.90380351245403 107.80061700940132 688.54867269843817 71.004368886351585 855.16045972704887 137.14373546093702 1280.8617086708546 395.09853948652744 399.72218099981546 701.17585007846355 63.203166082501411 1054.8392810598016 1080.0057088285685 295.60504013299942 94.683432757854462 132.96948480606079 178.37840999662876 111.58197313547134 844.70199441164732 462.60543967783451 360.79176795482635 642.92324330657721
leaf_count=1614 4220 6193 1079 4065 518 15625 4070 25384 13320 3800 6248 29673 3340 1177 4537 9121 2888 5882 8118 2314 13253 8816 5063 5108 3012 1910 5620 5968 20548 3330 3193 5729 3104 6702 1454 507 6594 1881 3022 3934 6783 776 5752 597 6788 1080 10474 2917 3129 5628 471 8210 8528 2116 668 994 1310 767 6624 3453 2837 4650
internal_value=7.68361e-05 -0.0178596 0.0216784 0.0379884 0.0140176 -0.00916235 0.0201793 -0.0304999 -0.0145059 -0.000740107 0.0480266 -0.0347133 0.0437252 0.0037162 0.0283679 0.0129957 0.0238579 0.0494193 0.00567922 0.00929631 -0.0186073 -0.0196586 0.0541655 0.0190088 0.0267235 -0.00797667 0.0125463 0.0152194 -0.0156136 -0.00678709 0.010891 0.0216416 0.00682527 0.0122622 -0.0154495 0.0305023 -0.0298047 0.0446166 0.0144013 0.017645 0.035028 0.0266559 -0.0175677 -0.0225021 -0.000140007 0.00694461 -0.0137916 0.0291716 -0.000525484 0.00107296 0.0208656 -0.00348818 -0.00446742 0.0358241 0.0415083 0.0201905 0.0247183 0.0629104 0.00462047 0.0194539 -0.00554091 0.0260751
internal_weight=43684.5 23868 19816.5 6320.5 13496 14149.6 8453.34 9718.43 8663.73 5485.84 3711.05 7018.75 3089.31 5042.71 3950.34 4503 2609.45 2190.97 2907.07 2841.69 5636.04 2699.68 1718.83 2280.58 1084.86 2578.77 2331.09 2031.1 4060.36 3027.69 1881.97 1965.41 2222.43 1277.52 1985.32 1532.61 4192.54 328.217 1076.84 933.755 1984.92 1204.4 1803.8 1115.25 1098.44 1463.07 1480.33 1020.02 944.911 1113.29 1310.09 2201.02 2134.84 498.089 390.288 706.308 573.339 862.941 1325.92 1246.89 510.606 1416
internal_count=346486 199768 146718 44540 102178 115305 63082 84463 71704 43601 25365 61651 21300 39096 28686 34396 19175 15052 22815 21840 47121 22812 11712 17241 8120 20786 17826 15512 33801 24583 14697 14449 17155 9806 16619 11140 36267 2388 8035 6956 14237 8752 15165 9413 8698 11504 12088 7454 7349 8958 9892 17256 16738 3560 2784 5192 4198 5830 10424 9421 4014 10379
cat_boundaries=0 1 2 3 4 6 8 10 12 14 15 17 19 20 22 24 26 27 29 31 33 35 36 37 39 41 43
cat_threshold=2047 1984 260096 1536 2080374784 1 1149324769 445313 2342309396 8719 2173488698 9230 1174487468 282656 6144 3280898567 160918 1182877825 489953 1 21432386 12591 67453121 167968 43548770 401634 8279 2182351171 5122 2290909722 33918 2161279647 286871 1142523105 293200 2048 221184 1103511592 168200 156256792 7542 3259271431 203795
is_linear=0
shrinkage=0.05


Tree=5
num_leaves=63
num_cat=20
split_feature=4 1 31 36 6 1 1 21 1 6 21 6 24 1 21 6 6 9 32 6 21 6 9 35 9 21 23 4 31 1 9 9 6 12 9 30 9 4 35 30 21 1 4 21 35 21 30 9 9 34 21 9 36 9 4 9 9 8 28 6 36 9
split_gain=5999.7 1008.05 845.179 339.348 273.748 254.495 160.593 140.824 140.131 136.219 134.972 110.233 103.566 86.5554 82.2877 73.4094 71.1618 67.8274 67.7991 61.1341 56.711 51.4275 50.5089 50.2018 49.5021 49.2991 47.5978 45.8094 43.9729 43.8443 43.5973 42.3257 41.598 40.534 37.3599 36.1555 36.0316 35.8481 35.6822 35.6591 33.7842 33.0857 31.5202 30.9621 30.1492 29.3102 36.965 29.1696 28.8626 28.7623 28.0531 28.0497 27.8141 32.636 27.7068 27.2861 26.5658 25.7384 25.5258 30.3583 25.2629 24.2047
threshold=0 9.7350000000000012 48.000000000000007 0.096161714285714309 61008.620000000003 18.770000000000003 17.330000000000002 4.5000000000000009 7.6400000000000015 65002.000000000007 4.5000000000000009 80000.020000000004 1.5000000000000002 12.370000000000003 5.5000000000000009 44575.000000000007 60004.000000000007 1 inf 65002.000000000007 2.5000000000000004 66001.000000000015 2 0.27174919484702098 3 1.5000000000000002 97.750000000000014 4 48.000000000000007 11.460000000000003 5 6 108006.00000000001 1.5000000000000002 7 173172.50000000003 8 9 0.35714604597531086 173172.50000000003 3.5000000000000004 13.510000000000002 10 5.5000000000000009 0.23266297089180241 3.5000000000000004 278099.50000000006 11 12 153.50000000000003 4.5000000000000009 13 0.057247473445555627 14 15 16 17 18 17.900000000000002 49002.500000000007 0.03732245 19
decision_type=9 2 2 2 2 2 2 8 2 2 10 2 10 2 10 2 2 9 8 2 10 2 9 2 9 8 8 9 2 2 9 9 2 2 9 10 9 9 2 10 10 2 9 10 2 10 10 9 9 2 8 9 2 9 9 9 9 9 8 2 2 9
left_child=1 8 3 10 7 9 14 18 21 34 15 25 22 43 19 54 50 29 23 24 -8 57 26 -3 -5 -7 42 -17 40 -9 -29 60 36 -32 -4 -16 -22 -11 -31 44 -15 -25 -12 -6 -27 49 -47 -20 -46 -13 -10 -45 -39 -54 -2 -42 -56 -1 59 -38 -14 -51
right_child=2 4 5 6 13 11 20 17 16 37 12 45 31 28 35 27 -18 -19 47 -21 32 -23 -24 41 -26 39 -28 30 -30 38 33 -33 -34 -35 -36 -37 58 52 -40 -41 55 -43 -44 51 48 46 -48 -49 -50 61 -52 -53 53 -55 56 -57 -58 -59 -60 -61 -62 -63
leaf_value=0.011966175668681139 0.00015595154926746632 -0.014248565286651957 0.0040516882638132598 0.021196185975496943 -0.023631818948388304 0.030692067946110731 0.02000670471187568 0.00013385952305787623 -0.022670748191496136 0.031890495203647687 0.017517935004756787 0.04649836148981 -0.00058606426110144804 -0.018344428252825184 0.034627367927818238 0.023916962044113189 -0.030165090945265351 -0.0039375864282355328 0.025296706046693512 -0.0028159908344287618 0.026414572872961617 -0.043259285382958437 0.0099269518717787723 -0.0068758462052484317 0.0040094778470357939 0.044049910850631764 0.056912052443947883 -0.013278957837478254 0.0076180615754182154 0.012988029168115867 -0.0038337360690936504 -0.0021746279867668945 0.0038635677171373903 0.010952347638530435 0.038661347321040949 0.011893979961515429 0.0029416689743487936 0.00078752329335921251 0.036931947475834288 0.044328710785821665 0.0033258413343245697 0.01031008257319713 0.033417774517379394 0.0042082348568862095 0.073429430681354546 0.052362197845155806 0.026011274468142449 -0.0030894304894858345 0.046648922593240653 -0.0094780411520219276 -0.010966559831940696 -0.017502364567678359 0.029553235563721914 0.0076918349269451116 -0.00017598915534761272 -0.011438098544690307 0.019869985388000375 -0.032072075446913338 0.048531633949833168 0.057267466537574502 0.022300436947552064 0.023661320490166157
leaf_weight=34.346843414008617 408.22910126298666 2653.9723948165774 97.730220824480057 1372.4635332897305 3038.9984515011311 180.72665975987911 559.18129089474678 623.46882063895464 1390.4847215339541 256.09832169115543 962.17369440197945 112.96510960161686 174.60974454134703 1174.3883551508188 718.57716280221939 151.19493886083364 3041.5807802081108 1212.3049196302891 190.75505288690329 555.53841471672058 467.92402014136314 2035.2996249720454 778.82347722351551 1282.3327959626913 626.81768987327814 185.71161307394505 115.69958609342575 821.75382367521524 319.33045626431704 1177.0166630074382 1786.2024880871177 968.56744071096182 82.600506387650967 625.92542485147715 1421.5324901342392 231.16257756203413 69.158746600151062 415.37487771362066 179.29948341101408 350.24809771776199 449.64849819988012 358.29829007387161 550.0208495259285 189.55701639503241 664.21511021256447 339.36839926242828 218.95427264273167 167.67707037180662 315.96629983186722 67.605606630444527 810.30920121818781 700.94008681923151 295.90259738266468 442.04288550466299 216.55888319015503 1014.9650251790881 810.00933051109314 1548.9288870170712 981.699078515172 40.938793286681175 389.64943794161081 258.1624610722065
leaf_count=308 3135 21912 706 9875 26038 1217 3942 5000 11960 1850 7206 785 1353 9863 5115 1105 27075 9685 1500 4285 3207 18910 5831 10343 4602 1283 849 6483 2516 9201 13957 7406 586 4873 10010 1704 459 3181 1334 2303 3682 2767 3980 1583 4217 2277 1508 1328 2031 475 6867 5906 2210 3320 1642 8356 6070 13948 6565 275 2925 1813
internal_value=-5.01797e-06 -0.0171 0.020072 0.0136879 -0.00909223 0.0365322 0.0231764 -0.00270605 -0.0304338 0.02633 0.00750693 0.0476236 0.0143721 -0.016366 0.0165281 0.00189568 -0.0252098 0.00538191 -0.00825457 0.0118568 0.0337597 -0.038002 0.0208418 -0.00999821 0.0159339 0.0553766 0.0258441 -0.00212167 -0.00990617 0.0110527 -0.0034025 0.00421378 0.0384423 3.10634e-06 0.0367161 0.0290942 0.0402736 0.0151343 0.0161533 0.058319 -0.0120267 -0.0031226 0.0236379 -0.0212293 0.0625218 0.0344289 0.0420283 0.012637 0.0660217 0.0247581 -0.0183614 -0.0130302 0.0110413 0.0169626 0.0113737 -0.00696083 0.0156803 -0.0312437 0.0455541 0.0231422 0.0149532 0.0172194
internal_weight=43682 23593.9 20088.1 14465.5 14733 5622.61 5706.06 7845.13 8860.95 2928.68 8759.42 2693.92 3939.54 6887.83 3504.56 4819.87 5242.37 3192.09 4653.04 2554.82 2201.5 3618.58 2406.72 4294.6 1999.28 1696.87 1627.89 3385.08 2958.33 1979.78 3233.88 1532.83 1642.32 2412.13 1519.26 949.74 1559.72 1409.42 1356.32 1516.14 2639 1640.63 1512.19 3929.5 1165.89 997.056 558.323 358.432 980.181 438.733 2200.79 890.497 1153.32 737.945 1434.8 1464.61 1026.57 1583.28 1091.8 110.098 564.259 325.768
internal_count=346698 200082 146616 107430 121014 39186 40615 63070 79068 21277 66815 17909 29550 57944 25581 37265 45902 25220 37850 18762 15034 33166 17866 35022 14477 11051 12035 26418 24417 15535 25313 11684 11092 18830 10716 6819 10506 10561 10535 9834 21901 13110 11186 33527 7531 6858 3785 2828 6248 3073 18827 7489 8711 5530 10847 12038 7712 14256 7299 734 4278 2288
cat_boundaries=0 1 3 5 7 8 10 12 14 16 17 18 20 22 24 26 27 29 31 32 34
cat_threshold=2047 2341389845 9863 2160329246 76815 2212397882 42014 230686720 1208304042 164201 2199389954 9366 67174529 475520 1140936163 450448 10158080 1624012800 2174534162 3298 2304246290 15436 17369090 156694 2299002944 68686 1291855872 63048391 29205 1183270221 415232 3328 1087014018 75025
is_linear=0
shrinkage=0.05


Tree=6
num_leaves=63
num_cat=18
split_feature=3 4 1 35 35 35 1 2 21 31 10 1 21 21 24 21 21 24 9 20 36 9 16 10 18 9 9 1 8 10 9 9 9 2 21 21 22 31 28 9 22 9 9 22 9 2 4 32 21 30 35 24 36 23 21 30 35 9 21 9 8 1
split_gain=5356.04 946.582 714.545 425.417 296.497 165.294 131.499 119.658 115.64 112 97.7155 87.626 80.0494 65.8408 63.7856 63.7832 61.2819 55.8019 53.6395 52.1442 50.3117 49.2211 48.9707 46.7549 45.1493 43.7071 42.7007 41.9565 41.5536 39.7976 41.6178 38.2806 37.6095 35.1946 34.5007 33.4489 33.2253 37.875 33.7034 33.1568 31.7238 31.6173 31.1347 30.1277 29.7255 29.3648 28.6672 28.0687 27.8412 37.6598 27.4426 26.8632 28.1892 26.7685 26.414 26.3702 25.7274 25.5352 25.2102 25.1639 24.6988 24.3051
threshold=0 1 9.7350000000000012 0.26561892653537195 0.23333462964403309 0.30554643176006735 7.6400000000000015 646.7700000000001 3.5000000000000004 48.000000000000007 14.855000000000002 22.025000000000002 6.5000000000000009 2.5000000000000004 1.0000000180025095e-35 2.5000000000000004 1.5000000000000002 1.5000000000000002 2 8205.0000000000018 0.060564307692307702 3 14151.500000000002 18.785000000000004 25.500000000000004 4 5 15.805000000000001 6 14.315000000000003 7 8 9 928.08500000000015 3.5000000000000004 5.5000000000000009 20096.500000000004 48.000000000000007 10.800000000000002 10 12978.500000000002 11 12 15970.500000000002 13 841.03000000000009 14 inf 3.5000000000000004 22200.500000000004 0.39216635622971957 1.0000000180025095e-35 0.034361132867132875 99.250000000000014 8.5000000000000018 36300.500000000007 0.36369318181818189 15 1.5000000000000002 16 17 11.460000000000003
decision_type=9 9 2 2 2 2 2 2 8 2 2 2 10 8 8 8 8 8 9 8 2 9 2 2 2 9 9 2 9 2 9 9 9 2 10 8 10 2 10 9 8 9 9 10 9 2 9 8 10 10 2 10 2 10 10 10 2 9 10 9 9 2
left_child=2 4 6 9 10 8 43 13 44 15 21 16 24 -6 39 -3 33 20 -18 -14 32 46 35 55 41 -9 61 31 -16 -30 47 -15 -17 -5 -27 -7 37 38 -20 -10 -11 48 54 60 -4 -36 -2 -31 -12 -50 -13 -23 -53 58 -21 -8 57 -29 -46 -26 -1 -24
right_child=1 3 5 11 7 22 23 25 14 40 12 50 19 27 28 17 18 -19 36 42 -22 51 26 -25 59 34 -28 56 29 30 -32 -33 -34 -35 45 -37 -38 -39 -40 -41 -42 -43 -44 -45 53 -47 -48 -49 49 -51 -52 52 -54 -55 -56 -57 -58 -59 -60 -61 -62 -63
leaf_value=-0.0010691951864379874 -0.0058997493974842332 0.0024264343119549821 -0.011281270713643873 0.023031513770604927 0.011395658702524293 0.00358681553363502 -0.020667278679240283 -0.009911811257074913 0.0050908100784329028 0.042192116511942879 0.0062469514878032116 0.048580359086528684 0.05286768011125198 0.027491057524002022 0.019540402972394722 0.023974067720821522 0.024886358910325028 0.010205624285152301 0.018771104214025537 0.012777548346955912 0.031490143665663516 -0.0039011589962098417 -0.010737886561441971 -0.017802236566790565 -0.019603367858548659 0.0010871163675978365 -0.017096654258438173 0.0054322446689602268 -0.019065350775142039 -0.018379614544422357 -0.002952159811222565 0.013198970154915772 0.003596447977991411 -0.024681974138663944 0.02872097544331878 0.022641835266728187 0.024240342326976316 0.053873431108370555 0.043356240984737948 -0.009419396689991609 0.026435284575676156 0.00025965125308228154 0.0037068971071991252 -0.043498469653745625 -0.029180420976201684 0.0070399935326791912 0.007848581664412272 0.02445497190679724 0.063727085120318425 0.017567125561883539 0.066671110299655112 -0.03004608059345977 -0.01064329224771505 0.0053733773988610097 0.03371532468557286 -0.03058050834231249 0.050406587074555823 0.03384530321093792 -0.019679629250742323 -0.0011580140251630422 -0.0344844007673272 0.010252753805193283
leaf_weight=67.995938122272491 639.07616423815489 770.43924402445555 900.20929779857397 278.76114635169506 1209.4391194730997 784.00667816400528 926.70108129829168 367.01515889167786 1018.3451579064131 472.7600674405694 620.05056679993868 675.94012355804443 99.637298725545406 1142.4509453102946 93.983074307441711 537.5264280512929 612.37049347162247 1252.3873649686575 165.50378249585629 330.48985362052917 1009.2410136759281 946.73675046116114 210.77088017016649 1770.9221005737782 212.0674738958478 598.60827115178108 460.18935061246157 111.22214248776436 1590.0704398676753 954.14713238924742 1338.5754553154111 913.4933170452714 410.01317772269249 44.86947937309742 312.46849739551544 326.09736946970224 198.78213699162006 809.47911816835403 883.90463861823082 627.98497323691845 984.97824649512768 834.85246786475182 401.23534388840199 1165.4974042251706 1048.8479112610221 312.22916189581156 904.64445308595896 39.841877169907093 49.111701965332031 440.58319227397442 303.86795349419117 254.19748473167419 710.19253388047218 86.288995765149593 276.78159562498331 2429.7890487909317 194.84986384212971 577.80499295145273 2088.6821214109659 1132.7472689002752 2289.8391564339399 398.91667534410954
leaf_count=625 5125 5819 7657 1920 8853 6282 8170 2832 8294 3187 4841 4131 742 8142 780 3897 4118 9264 1105 2461 7059 7407 1750 15679 1680 4598 3776 772 13406 8002 11067 6643 3017 317 2272 2517 1328 5140 5812 5154 6835 6519 3050 11120 9013 2350 6982 325 368 3350 1820 2072 5654 741 2042 21896 1304 3976 17892 8850 21492 3210
internal_value=-2.72644e-05 0.0165567 -0.0185287 0.0287458 0.00810223 -0.0106237 -0.0294856 0.0167459 -0.013397 0.0196886 0.00179459 0.0412121 0.00673837 0.0212154 -0.00875894 0.0153455 0.0369642 0.018447 0.0394548 0.018361 0.0237217 -0.00449818 0.00182737 -0.0243754 0.00282291 0.00508472 -0.00580619 0.0252552 -0.0121563 -0.0129325 -0.00880736 0.0213387 0.0154474 0.0164163 0.00958663 0.0091843 0.0434583 0.0457472 0.0394789 -0.000470333 0.0315454 0.0076943 0.0149518 -0.0369222 -0.0197659 0.0178846 0.00215565 -0.0164967 0.0131663 0.0221965 0.0541908 -0.00983266 -0.0157576 -0.0220317 0.0219589 -0.0278435 0.0343653 0.0298289 -0.0228557 -0.00422109 -0.0336716 0.00294787
internal_weight=43620.5 23002.8 20617.7 9410.82 13592 11967 8650.74 5739.58 9786.98 5437.35 7852.4 3973.48 4397.56 4149.26 5662.95 3979.61 2993.67 3209.17 2670.04 1108.14 1956.78 3454.85 2179.98 5127.41 3289.41 1590.32 1069.88 2939.82 4016.62 3922.63 2332.56 2055.94 947.54 323.631 1223.31 1110.1 2057.67 1858.89 1049.41 1646.33 1457.74 1944.6 1008.51 3523.33 4124.03 624.698 1543.72 993.989 1109.75 489.695 979.808 1911.13 964.39 3223.82 607.271 3356.49 883.877 689.027 3137.53 1344.81 2357.84 609.688
internal_count=346502 167654 178848 64769 102885 99866 78982 41742 82331 39078 61143 25691 33903 29690 47028 29056 19740 23237 17503 8295 13973 27240 17535 45745 25608 12052 8736 20837 33580 32800 19394 14785 6914 2237 9220 8799 13385 12057 6917 13448 10022 15078 7553 33237 35303 4622 12107 8327 8559 3718 5951 15133 7726 27646 4503 30066 6052 4748 26905 10530 22117 4960
cat_boundaries=0 1 2 4 6 8 10 11 13 15 17 19 21 23 25 26 28 30 31
cat_threshold=3 64512 1182878113 150417 197691906 330910 1174523361 246560 2320797330 5735 7424 1078313385 498536 2292056862 42098 1095503380 11354 1132825500 273430 2269184799 123686 2173963992 13983 2265219878 1154 3072 3221293474 430130 1145112000 446720 7424
is_linear=0
shrinkage=0.05


Tree=7
num_leaves=63
num_cat=6
split_feature=4 4 4 31 35 6 36 36 21 5 10 2 6 21 10 31 6 21 21 21 24 4 21 24 31 21 21 32 24 36 33 21 32 6 24 21 4 6 6 20 33 30 35 6 32 6 12 6 21 32 33 20 37 21 10 23 36 21 28 37 17 24
split_gain=4969.51 989.01 500.121 423.177 223.866 201.333 175.816 117.163 110.287 106.551 93.4194 83.0174 80.7846 79.652 69.432 63.0343 54.5685 54.0764 52.3621 50.8151 50.4712 49.5358 48.6598 47.4652 45.2807 45.1528 41.2204 40.5553 36.8854 36.4652 34.752 33.4685 32.5943 30.5766 30.3884 29.2024 27.8633 27.1784 27.1003 30.8315 26.4605 24.3399 24.0713 23.9813 23.6077 22.9636 22.8526 22.7745 22.6915 22.5526 21.7891 21.2971 21.2781 21.2261 20.8487 20.8163 20.7309 20.6301 19.9949 19.9191 19.7249 19.5015
threshold=0 1 2 48.000000000000007 0.24685772116903637 45999.980000000003 0.041957798918918925 0.097900556097561001 2.5000000000000004 3 18.965000000000003 675.13000000000011 42502.000000000007 2.5000000000000004 15.895000000000001 48.000000000000007 50000.020000000011 3.5000000000000004 9.5000000000000018 5.5000000000000009 1.5000000000000002 4 6.5000000000000009 2.5000000000000004 48.000000000000007 4.5000000000000009 4.5000000000000009 inf 1.5000000000000002 0.14755065198493192 739.50000000000011 4.5000000000000009 inf 90000.500000000015 1.0000000180025095e-35 6.5000000000000009 5 75000.500000000015 65851.000000000015 3225.0000000000005 689.50000000000011 44054.000000000007 0.27273567778375479 83988.000000000015 1.0000000180025095e-35 100003.00000000001 1.0000000180025095e-35 34641.000000000007 7.5000000000000009 8.5000000000000018 684.50000000000011 32801.000000000007 0.26508956314089066 4.5000000000000009 16.595000000000002 99.050000000000011 0.067705492767598865 3.5000000000000004 15.600000000000003 0.35076495557662596 89.65000000000002 1.0000000180025095e-35
decision_type=9 9 9 2 2 2 2 2 10 9 2 2 2 8 2 2 2 8 10 10 8 9 8 8 2 8 8 8 8 2 2 10 8 2 10 10 9 2 2 10 2 8 2 2 10 2 2 2 10 10 2 8 2 8 2 10 2 10 10 2 8 8
left_child=2 4 5 6 10 22 26 17 16 14 21 19 -4 -7 -10 20 46 36 29 24 35 34 27 56 44 49 -3 42 31 45 53 -12 38 59 -2 -15 41 54 39 -23 -27 -5 52 -13 -6 -11 60 -26 -16 -9 -50 -47 -1 -14 -22 -41 -19 -40 -17 -25 -8 -46
right_child=1 3 12 7 11 13 8 25 9 18 28 43 30 15 48 58 -18 23 -20 -21 37 32 -24 33 47 40 -28 -29 -30 -31 -32 -33 -34 -35 -36 -37 -38 -39 57 55 -42 -43 -44 -45 61 51 -48 -49 50 -51 -52 -53 -54 -55 -56 -57 -58 -59 -60 -61 -62 -63
leaf_value=-0.018149198058586495 0.008284443546657267 -0.0050369467724245337 -0.019027203802035431 0.067649009426844306 0.020432154236221266 -0.026243808987644175 0.005596896654709884 0.044079236754892753 0.020526709780255236 0.01380651779533674 0.003492339700351644 0.0066809479973944721 -0.036177804518592156 -0.015007358377141537 0.03453554192596265 -0.0067747751850593951 0.00082007588316867412 0.032613546235270623 0.03873302002913967 0.028281658881755219 -0.022637236613643308 0.0080608584519899322 0.0056877860385160161 0.030072643471014543 0.058056765195507148 0.059108486265623275 0.010229619329517629 0.0097783968141851949 -0.00067210363132194726 0.027915773240642788 -0.041895794237539356 0.01782549286703328 0.016858796169188946 0.016494735781780442 -0.0051232194376775826 -0.0022309936456139496 0.0089704103838941975 -0.025271807854490503 -0.020422832062211817 -0.010412484082105381 0.042653699206712768 0.024214783049332958 -0.0044792118297733849 -0.0081090179419101259 0.010836303377520893 0.014216936760791651 0.025486240413021069 0.020916426399228232 0.055673127203367069 0.029390738893858522 0.027445406994454816 -0.014099247695098672 -0.0042813804703562683 -0.026085091577977417 -0.011316094427598946 0.028392033488344057 0.050771141957413161 -0.0091240565472503077 0.013823065467577004 0.05571642941464227 0.027655080409997358 -0.00081344223029171088
leaf_weight=1054.160640925169 817.62435031682253 838.91852776706219 756.18680989742279 41.424323692917824 358.15434638410807 2730.6834842190146 425.42998423427343 582.61257718503475 925.82858721166849 1590.0079699605703 809.53138232976198 704.39088328182697 1510.8614420816302 2007.7274159789085 1360.2630901932716 316.79827356338501 841.33049029111862 258.97950860112906 247.12797172367573 716.17341396957636 756.7248749807477 332.7732797935605 810.56137672066689 544.42563216388226 43.478196404874325 589.47821862995625 934.87187357246876 279.76990870386362 1266.6412061974406 414.28422214835882 1851.4078876972198 819.64925699681044 115.26339720934629 441.69036883860826 874.74889674037695 575.42471746355295 468.04038598388433 1970.7100349143147 797.73849960416555 1118.5630104616284 417.25167073309422 145.71407234668732 1028.3835897743702 448.65227664262056 890.72936513274908 116.38030242919922 510.69439043104649 814.92931620031595 272.57889392971992 473.88013698160648 91.250157400965691 154.63239981979132 374.99980998784304 795.09752513468266 879.09932743757963 35.662305742502213 399.9708263874054 818.51734354346991 187.58227311819792 87.960966229438782 133.04189676046371 602.0307969301939
leaf_count=8892 6284 6518 6897 274 2617 24427 3032 3685 6451 11214 6429 5427 14474 17460 9221 2659 6229 1760 1684 5075 6585 2652 6475 3616 306 3494 6957 2195 9977 2727 17911 6175 922 3056 6889 4888 3289 17585 6704 9022 2588 998 8384 3565 6569 861 3627 5817 1802 3017 610 1143 3156 7583 7522 287 2561 6718 1563 585 944 4477
internal_value=-0.000157732 0.0139278 -0.0203879 0.02339 0.00374997 -0.0152135 0.0170865 0.035984 0.0206119 0.0244038 -0.00139503 0.0125307 -0.0339905 -0.019047 0.0314526 -0.0161112 0.010346 0.0284443 0.0168075 0.0164369 -0.0174962 -0.00559514 -0.0050729 0.0330704 0.0133059 0.0447113 0.00300926 -0.00825931 0.00572773 0.0145 -0.036794 0.0107034 -0.00922068 0.0265891 0.00134637 -0.0121613 0.0162077 -0.0213173 -0.0102191 -0.00534772 0.0522886 0.0321132 -0.0103127 0.000926131 0.0089039 0.0115135 0.017842 0.0227976 0.0375021 0.0374908 0.0485935 -0.0019395 -0.0145104 -0.0326978 -0.0165532 -0.00921353 0.0436349 -0.0147008 0.00088569 0.0336395 0.0108517 0.00613796
internal_weight=43579.5 25693.3 17886.2 13308.1 12385.3 12972.6 8856.64 4451.43 7082.85 5172.35 7806.71 4578.54 4913.55 9424.75 2649.92 6694.07 1910.5 2388.21 2522.43 3425.5 6189.69 4910.89 3547.88 1733.03 2709.32 2063.22 1773.79 2737.31 2895.82 2275.3 4157.37 1629.18 3218.52 1074.08 1692.37 2583.15 655.179 3606.53 3103.25 1487 1006.73 187.138 2457.54 1153.04 1850.91 1861.02 1069.17 858.408 1724.09 1056.49 363.829 271.013 1429.16 2305.96 1635.82 1154.23 658.95 1616.26 504.381 632.387 558.472 1492.76
internal_count=346511 187855 158656 91943 95912 111791 63020 28923 49545 35713 62059 33853 46865 82689 18084 58262 13832 16139 17629 24861 54040 39478 29102 11578 19786 12784 13475 22627 22581 15945 39968 12604 26305 7257 13173 22348 4561 31692 25383 11961 6082 1272 20432 8992 13663 13218 7603 6123 11633 6702 2412 2004 12048 22057 14107 9309 4321 13422 4222 4201 3976 11046
cat_boundaries=0 1 2 3 4 5 7
cat_threshold=511 15872 496 32 12288 3431268352 2
is_linear=0
shrinkage=0.05


Tree=8
num_leaves=63
num_cat=26
split_feature=4 4 1 35 35 6 6 4 31 6 1 10 6 4 4 35 9 9 31 32 9 4 33 9 9 33 10 9 22 35 9 2 9 9 22 9 20 0 10 6 10 9 9 9 22 35 9 35 1 22 9 9 35 9 9 10 9 6 35 36 37 9
split_gain=4524.36 940.934 498.422 316.218 278.82 192.271 131.712 94.1573 84.6647 81.5035 80.7315 77.0863 65.1394 65.1028 60.0159 54.8914 49.7657 47.8554 47.4089 45.5566 43.781 43.3519 40.9296 40.8214 39.566 39.2808 36.835 49.3725 36.0457 35.8086 34.2571 33.7432 32.4811 30.7342 30.564 30.2337 30.2233 30.1772 30.0169 29.9405 29.5542 29.0309 28.5922 27.3197 26.4799 24.6751 23.1795 25.5918 22.8625 21.8359 21.7448 21.3506 21.2197 20.8964 20.8034 20.407 28.6623 20.3801 20.3213 20.2565 20.1625 19.9752
threshold=0 1 8.2900000000000009 0.2451153912892591 0.22106426715277511 44575.000000000007 65851.000000000015 2 48.000000000000007 43506.000000000007 21.200000000000003 16.685000000000006 83988.000000000015 3 4 0.050000769254438603 5 6 48.000000000000007 inf 7 8 704.50000000000011 9 10 744.50000000000011 17.635000000000002 11 20359.500000000004 0.063638967155163942 12 631.29500000000019 13 14 14921.000000000002 15 2675.0000000000005 7012.5000000000009 21.025000000000002 78003.000000000015 15.385000000000003 16 17 18 27046.500000000004 0.38170367226178192 19 0.28958028104785788 23.415000000000003 22873.500000000004 20 21 0.27777970681691572 22 23 19.975000000000005 24 21000.050000000003 0.388896090801717 0.14755065198493192 0.06653501723455954 25
decision_type=9 9 2 2 2 2 2 9 2 2 2 2 2 9 9 2 9 9 2 8 9 9 2 9 9 2 2 9 10 2 9 2 9 9 10 9 10 2 2 2 2 9 9 9 8 2 9 2 2 10 9 9 2 9 9 2 9 2 2 2 2 9
left_child=2 3 9 6 15 19 13 31 11 -1 16 34 17 26 40 41 59 18 -9 23 -12 33 30 -4 -16 -11 36 -28 38 54 -13 46 -10 -17 51 -33 50 -26 45 -22 -8 -3 -31 -42 -39 -18 47 -5 -41 -23 -2 -7 -25 -21 -15 56 58 -40 -19 -6 -44 -57
right_child=1 4 5 7 10 8 14 12 32 25 20 22 -14 29 24 21 28 55 -20 53 39 49 -24 52 37 -27 27 -29 -30 42 -32 35 -34 -35 -36 -37 -38 44 57 48 43 -43 60 -45 -46 -47 -48 -49 -50 -51 -52 -53 -54 -55 -56 61 -58 -59 -60 -61 -62 -63
leaf_value=-0.018637512654146812 -0.0097983451845527116 0.012087890225588073 0.0029723843984310197 0.019403570163331198 0.014809491959190508 -0.012952700667734188 -0.015876338818212415 -0.0036587638765261943 0.0080319943653110598 -0.031938061342474754 0.021475040244711658 -0.0035058294933926447 -0.0091396207440819551 0.011196792218493746 -0.013510007409103115 0.0010552526357930771 0.027191887619547717 0.00056242280380843944 0.023615835361806649 -0.014998137430059797 0.052389667798862741 0.0283245076634356 -0.020042231900105463 -0.014372038610051614 -0.0088324769606493558 -0.041875699006865191 0.016896427237694914 -0.0024076822899724969 0.014602869900400479 0.016353336212353114 -0.015714666253306159 -0.0046680014212163575 -0.013381031684796136 0.017024796966378947 -0.028768420937474705 0.018034376313199978 -0.0088685707727044656 0.010425416179444839 0.012723511866639623 0.027082391258187934 0.0019383740524073158 -0.014715394899936391 0.024257364699045145 -0.014550967436139746 -0.0028211856061006258 0.045264353862429912 0.02198356999990381 0.04538021696974795 0.051292910706902221 0.0094929023072950064 0.018156267428057909 -0.023002198519220071 -0.0033166214199950375 0.019525899125745032 -0.016310608285930214 0.027698125699662651 0.020644773928199744 0.045824729106384077 0.020178996514095118 0.033287585784216131 0.0028541920523505902 0.013508093348459574
leaf_weight=832.31906185299158 99.108626335859299 198.14625263959169 941.42918179929256 140.14854916930199 626.38374547660351 823.45849516242743 1250.9452039003372 729.00425961613655 405.09491483867168 2582.643311329186 248.23662251234055 1155.841452345252 409.29885567724705 103.63656108081341 412.30485686659813 384.5106603577733 845.66264620423317 579.67616692185402 203.8837217092514 46.759751819074154 1017.1008302122355 1224.5846537277102 1643.919254720211 1075.0158476606011 416.8102151080966 1616.9519891664386 609.72875298559666 712.23673283308744 204.44833305478096 1928.7048545256257 1173.0178444162011 182.48079780489206 299.0480600297451 1591.0723740085959 1714.3624328523874 756.61767353117466 1098.2664509564638 1170.7271653041244 49.447347238659859 253.12768478691578 646.52466361224651 186.39077328145504 126.70175568759441 400.69890888780355 556.64227832108736 243.18361791968346 1688.5038750320673 293.11512449383736 158.61319494247437 176.06717596203089 197.89150379598141 2276.2829392850399 727.9500877559185 269.42874956130981 169.8951912522316 543.48269332200289 490.19077009707689 780.2758783698082 170.95724904537201 194.33101977407932 836.44253276288509 597.21558234095573
leaf_count=7671 786 1485 7720 939 4125 7327 10538 5520 3408 25285 1481 10039 3278 797 3243 2800 5491 4279 1472 367 5882 8246 14565 9067 3272 16140 4731 5640 1355 14173 10294 1323 2533 11356 15602 5356 8906 8877 317 1555 5253 1421 954 3280 4302 1503 11332 1927 954 1221 1565 20384 5904 2091 1313 3909 3596 4869 1242 1274 6257 4344
internal_value=-5.65481e-05 0.0132291 -0.0196249 0.00662874 0.027003 -0.014306 0.00129318 0.0150826 -0.0178202 -0.0329314 0.0352624 -0.019157 0.00965304 0.00632388 -0.00480277 0.0169267 0.030274 0.0120029 0.00227771 -0.0034084 0.0440184 0.0189653 -0.0140017 -0.00547898 0.000486314 -0.0357643 0.000622492 0.00660553 0.0343988 0.0111808 -0.0097378 0.0215858 -0.00113804 0.0139376 -0.0234113 0.0137653 -0.00504176 0.00322789 0.0366876 0.0474525 -0.0106422 -0.000972387 0.0128517 -0.00449138 0.00615672 0.0312282 0.0251489 0.0361433 0.0364089 0.0257733 0.00910925 -0.0204485 -0.00985375 0.0145635 -0.00607547 0.0157368 0.0113651 0.0438521 0.00496398 0.0189538 0.00561152 0.0206301
internal_weight=43486.9 25903.4 17583.5 17521.8 8381.58 12551.6 10737.3 6784.58 9491.03 5031.91 4620.81 8786.88 3723.71 5882.61 4854.65 3760.77 2943.73 3314.41 932.888 3060.58 1677.08 3376.23 3972.78 2744.4 2556.48 4199.6 2717.23 1321.97 2123.02 3165.38 2328.86 3060.87 704.143 1975.58 4814.1 939.098 1395.27 2144.18 1918.57 1428.84 2298.17 384.537 2891.85 1047.22 1727.37 1088.85 2121.77 433.264 411.741 1400.65 297 3099.74 1802.97 316.189 273.532 2381.52 1240.82 829.723 750.633 820.715 963.144 1140.7
internal_count=346136 187739 158397 132404 55335 109301 83887 48517 84152 49096 28806 78211 27640 45122 38765 26529 18934 24362 6992 25149 9872 23623 34898 22691 19694 41425 21628 10371 13535 23494 20333 20877 5941 14156 43313 6679 11257 16451 12180 8391 19071 2906 21384 8533 13179 6994 14198 2866 2509 9467 2351 27711 14971 2458 2110 17370 9117 5186 5521 5399 7211 8253
cat_boundaries=0 1 2 3 4 5 7 9 11 13 15 17 19 21 23 25 27 29 31 33 35 37 39 41 43 45 47
cat_threshold=511 196096 188416 3584 3584 1283539105 445361 1157696737 465832 1140950373 409889 5046272 3 2199257803 4103 1141066158 413984 2149353756 66607 2182351732 160918 2295631630 43077 109561256 152096 1174490245 184857 2299658256 81338 163874426 13343 2224063006 154204 25722888 518 2147634376 168228 2411989775 263698 1276118020 37137 2168588594 3089 135283216 24581 262166 40983
is_linear=0
shrinkage=0.05


Tree=9
num_leaves=63
num_cat=19
split_feature=4 1 1 31 6 6 10 6 31 21 21 21 6 4 30 21 32 23 9 21 9 6 9 10 21 33 1 10 31 21 21 32 9 9 9 9 31 21 31 30 9 9 9 27 9 9 21 30 4 9 30 6 21 1 1 9 10 4 23 6 9 13
split_gain=4029.32 825.778 467.153 296.165 205.719 187.357 123.587 102.984 90.1603 90.977 83.8527 76.7795 75.1996 70.4331 61.913 52.3757 51.7437 48.0751 47.7317 47.0099 51.1298 46.8818 46.6183 48.4756 45.4307 42.6494 42.2117 41.8301 39.6622 38.2834 37.4535 37.1721 37.1252 36.7057 36.3245 33.4574 32.8634 31.6017 31.057 29.1559 27.6665 27.4556 27.2728 27.0151 26.1708 25.16 25.1503 25.0221 24.9136 24.4612 23.8421 23.0564 22.9903 22.9442 22.7723 22.5097 22.2538 22.2268 21.8351 23.9111 21.8096 21.7543
threshold=0 16.265000000000004 8.2900000000000009 48.000000000000007 62002.000000000007 60004.000000000007 14.765000000000002 65002.000000000007 48.000000000000007 4.5000000000000009 4.5000000000000009 7.5000000000000009 42502.000000000007 1 278099.50000000006 3.5000000000000004 inf 100.65000000000002 2 2.5000000000000004 3 36998.000000000007 4 19.975000000000005 3.5000000000000004 744.50000000000011 18.770000000000003 20.165000000000003 48.000000000000007 4.5000000000000009 1.5000000000000002 inf 5 6 7 8 48.000000000000007 3.5000000000000004 48.000000000000007 420313.00000000006 9 10 11 95.850000000000009 12 13 4.5000000000000009 278099.50000000006 14 15 26167.000000000004 36000.015000000007 8.5000000000000018 13.885000000000002 19.590000000000003 16 25.625000000000004 17 99.450000000000017 50999.500000000007 18 21.500000000000004
decision_type=9 2 2 2 2 2 2 2 2 10 8 10 2 9 10 8 8 10 9 10 9 2 9 2 10 2 2 2 2 8 8 8 9 9 9 9 2 8 2 10 9 9 9 8 9 9 8 8 9 9 8 2 10 2 2 9 2 9 10 2 9 10
left_child=2 4 12 6 8 10 21 29 9 16 31 14 -1 27 17 -7 18 19 43 -8 -21 55 23 -11 36 46 -9 49 39 34 -23 48 -32 -26 -5 -12 -15 -28 52 45 -38 -13 -16 -2 -18 -17 -14 -39 -4 -6 -25 -10 -37 -45 -31 -3 -43 -24 59 -55 -30 -22
right_child=1 3 5 7 13 15 11 26 51 22 35 41 25 24 42 28 44 -19 -20 20 61 30 57 50 33 -27 37 -29 60 54 32 -33 -34 -35 -36 38 40 47 -40 -41 -42 56 -44 53 -46 -47 -48 -49 -50 -51 -52 -53 -54 58 -56 -57 -58 -59 -60 -61 -62 -63
leaf_value=-0.017576389308443682 -0.00134020454823806 0.044165252266368693 -0.0090199562382472682 0.04301444109724599 -0.013711787365070244 -0.024784696171626014 0.0087279805260132171 0.015445271976134461 0.043023773993421513 0.011505461824755585 -0.010975674894809854 -0.0025817710722356646 -0.034233097065492123 -0.015213158006088712 -0.016615117585853535 -0.0086403913544831762 0.031212078741720242 0.049880052940429492 -0.0052170387316829896 0.011445759882691864 0.030597117442658407 -0.012612856292745698 0.015031856376019115 0.069503804590442739 0.0065289460506220021 -0.040900285088946518 0.019700353490123914 0.019654226263787832 -0.013907327295113181 0.039376825900006074 -0.011515044138677301 0.0047421376655332748 0.0092938400028451246 -0.0063924723888566419 0.022307077223654558 -0.00061992628414960752 -0.013951754435216247 0.041719486026105923 0.02587659570959518 -0.030033233414791638 0.010354222404011092 0.030136904897455769 0.012542946508476809 0.0018305681739659238 0.003158431983869993 -0.018840575300227792 -0.023905099707080574 0.02682419214485135 -0.017684321610937036 0.0049811175199881395 0.028694031167992018 0.020628805574966807 0.018198441301695272 0.016869488393961143 0.053726408764091564 0.015055446860869182 0.047043932074502699 0.0024790066026066193 0.051405852831133407 -0.001805995401605172 0.012769606668048709 0.018681554404396863
leaf_weight=788.42568030953407 872.47620066255331 79.227070890367031 1757.2963963672519 501.79771856963634 212.66719260066748 2727.487085826695 926.70459957420826 786.80834698677063 134.07358249276876 609.11093353480101 526.80913455784321 56.041717320680618 1595.1943609118462 1560.6196110770106 171.34237507730722 983.93981962651014 221.677425570786 125.70651019364595 1638.0724618509412 872.34966357797384 1215.8381003141403 292.76844299584627 650.00652136653662 37.948698185384274 877.35040982067585 1573.4512326344848 554.29565654695034 426.0485822558403 120.23782499134541 560.27512058615685 239.20947104692459 307.31864863634109 1630.6250399127603 1435.8137445822358 525.83514177799225 1540.8773528039455 193.85135696083307 564.55623279511929 139.67648604512215 387.59195063263178 265.03371489793062 522.38807164132595 134.86691001057625 603.61644203215837 147.34840313345194 1867.8159174248576 934.93202991038561 563.22856949269772 1731.7254587113857 808.94160833209753 629.02559605240822 804.87340086698532 181.4085923358798 765.92888496816158 545.84428958594799 488.36021842062473 310.20647630095482 787.88355650752783 37.814569659531116 220.80365810543299 176.66027677804232 559.23920535296202
leaf_count=7365 6660 531 14924 3049 1650 25334 6563 5507 912 4495 4384 383 16081 13113 1253 8823 1621 858 12693 5957 8053 2186 4618 259 6950 16217 3561 3153 1024 3455 1757 2446 11600 11553 3266 12669 1502 3364 1091 3558 2051 3464 985 4679 1086 16971 9293 3528 15373 6174 4412 5580 1478 5585 3088 3314 1988 5992 280 1676 1476 3739
internal_value=6.8557e-05 0.0124532 -0.0186171 0.0219419 0.00413961 -0.0134833 0.0158961 0.0319576 0.00925141 0.00735639 -0.00731049 0.0206502 -0.0317192 -0.00307723 0.0177008 -0.0195786 0.00300187 0.019489 0.00140226 0.0184201 0.0218128 0.00737281 0.0145889 0.0215343 -0.00626047 -0.0344365 0.0250045 0.00644852 -0.0155633 0.0400026 0.00401618 -0.0119285 0.00661986 -0.00149097 0.0330542 2.87314e-05 -0.0117545 0.029476 0.00318408 -0.0171664 8.01111e-06 0.0339464 -0.00390572 0.00573623 0.0209419 -0.0154176 -0.0304167 0.0342806 -0.0133969 0.00100438 0.031016 0.0238266 0.00136221 0.00956348 0.046458 0.0201621 0.0360037 0.00821822 0.0141194 0.0126904 0.00192766 0.0266927
internal_weight=43509.3 26168.5 17340.8 12227.5 13941 12448.8 7624.87 4602.64 8160.66 7221.71 6185.11 4894.68 4892 5780.33 4006.05 6263.73 4507.74 3699.84 4138.71 3574.13 2647.43 2730.19 2713.98 1276.09 4332.67 4103.58 2468.89 1447.66 3536.25 2133.75 2162.6 3796.34 1869.83 2313.16 1027.63 2388.77 2019.5 1682.08 1861.96 3239.35 458.885 888.636 306.209 2500.64 369.026 2851.76 2530.13 1127.78 3489.02 1021.61 666.974 938.947 1722.29 1628.16 1106.12 567.587 832.595 1437.89 1024.55 986.733 296.898 1775.08
internal_count=346650 188143 158507 81449 106694 109551 52631 28818 60548 54056 52365 33243 48956 46146 27408 57186 34280 25170 31573 24312 17749 19388 19776 9166 35169 41591 15960 10977 31852 12858 15543 32743 13357 18503 6315 19622 16666 10453 15238 29352 3553 5835 2238 18880 2707 25794 25374 6892 30297 7824 4671 6492 14147 12220 6543 3845 5452 10610 7541 7261 2500 11792
cat_boundaries=0 1 2 4 6 8 10 12 14 16 18 20 22 24 26 27 29 31 32 34
cat_threshold=511 778240 2203618099 42007 1275151653 479200 2316042526 9743 1107511521 180224 2190740099 13885 2299659288 1100 1145670113 488240 2358871200 15417 1140850976 393632 9045048 47374 2307540050 78190 3272083971 30487 392 1141098638 12386 18350080 9258 61440 16925808 234682
is_linear=0
shrinkage=0.05


Tree=10
num_leaves=63
num_cat=30
split_feature=4 4 4 36 36 36 4 4 4 31 4 4 22 9 9 36 16 32 9 12 36 9 22 9 9 20 9 27 9 22 22 31 32 31 27 37 9 8 36 20 36 9 9 31 24 9 7 9 32 9 22 22 32 16 9 24 12 9 9 9 9 9
split_gain=3727.78 590.142 573.675 214.702 142.239 128.504 105.808 79.4032 67.267 57.4342 57.287 56.085 55.8544 52.8114 51.0673 47.4885 43.5362 42.9626 43.8859 40.371 38.9988 35.9747 34.5154 34.0081 33.0308 30.3784 30.1521 32.1527 29.1402 28.9402 28.5405 28.1893 28.0461 27.4312 27.2626 26.9868 30.4844 26.8132 26.6933 26.1015 25.8617 25.7417 25.6957 25.5544 25.7016 25.2494 25.1961 24.8833 24.544 24.1919 23.6978 23.6588 23.6316 22.8955 22.6027 26.3703 22.5178 22.2593 22.0658 21.8463 21.386 20.8207
threshold=0 1 2 0.061779501519756849 0.074178161467015974 0.079074819875776414 3 4 5 48.000000000000007 6 7 15134.500000000002 8 9 0.029119093670886081 12103.500000000002 inf 10 1.5000000000000002 0.10266612000000001 11 28792.500000000004 12 13 11610.000000000002 14 98.350000000000009 15 15970.500000000002 23807.500000000004 48.000000000000007 inf 48.000000000000007 93.050000000000011 0.39454020467836265 16 17 0.017193018181818186 30403.000000000004 0.11056458627858629 18 19 48.000000000000007 1.5000000000000002 20 21 22 inf 23 24461.500000000004 932.50000000000011 inf 17554.500000000004 24 1.0000000180025095e-35 1.5000000000000002 25 26 27 28 29
decision_type=9 9 9 2 2 2 9 9 9 2 9 9 10 9 9 2 2 8 9 2 2 9 10 9 9 10 9 8 9 10 10 2 8 2 8 2 9 9 2 10 2 9 9 2 8 9 1 9 8 9 10 10 8 2 9 10 2 9 9 9 9 9
left_child=1 5 3 11 19 9 17 37 24 12 14 49 32 39 -6 45 28 18 31 23 -15 -11 43 -4 -7 47 -21 -28 -10 48 40 -5 42 41 54 -18 -37 -3 -25 46 -20 -22 -1 44 -16 -13 -8 -26 -9 -2 -39 -30 53 -43 55 -17 58 -32 -36 -58 -34 -45
right_child=2 7 4 6 10 8 13 29 16 21 -12 15 -14 20 22 34 35 -19 30 26 33 -23 -24 38 25 -27 27 -29 51 -31 57 -33 60 -35 56 36 -38 50 -40 -41 -42 52 -44 61 -46 -47 -48 -49 -50 -51 -52 -53 -54 -55 -56 -57 59 -59 -60 -61 -62 -63
leaf_value=-0.021672526042449996 -0.01465566864140889 0.0089776594277194179 -0.0053538625289093521 -0.0056391355262293413 0.011110452762438274 0.0097169991360578911 0.016338193677969813 -0.032730551463982259 0.0066009308411163524 0.017643230248456772 0.037919067223933595 -0.016591357178369681 -0.022821061142313279 0.008460213078642002 0.030775055187890372 0.034260598900330383 -0.019318083608179312 0.024788882243767088 0.006347010618054082 -0.0026623315039518017 0.0025438979273525301 -0.0083009639644774508 0.0033655255901863003 -0.010082648761996197 -0.007911875628504662 -0.0065459255480867194 0.016580516527714053 0.035990618920643216 0.0055393168529625642 -0.041943131038192145 0.010909669651916365 0.013623364433190966 -0.018490921793563927 0.029705737468796685 -0.013485093023739814 0.012772893300414159 -0.012376918425079342 -0.022100725103242794 0.016319339474791358 0.012907269234383149 0.015662617455355021 0.020474708082123184 -0.011687864090320297 0.017868375745690682 0.015026097713511738 0.00024478493442729271 0.031110593298595998 0.016178954903634687 -0.0069313623261300821 -0.0026610803638990686 -0.03260390782598041 -0.012163574149170775 0.040143664569679806 0.0059482845056313266 -0.0046635094994353556 0.001656203615336963 0.0027908537070712378 -0.014796395733413365 0.0089669728610091894 0.02476333284770238 0.017083569584722989 0.041443048482108558
leaf_weight=826.71757214516401 631.32503686100245 63.285493224859238 268.3145511969924 1066.7760517969728 532.17913192510605 829.91024622321129 397.7367879152298 1771.1400137245655 509.30463029444218 194.44610086083412 1753.6091883182526 333.84590534865856 1996.9752135053277 2009.9452587217093 886.32403272390366 92.453314632177353 1119.0697666034102 312.58060421794653 1831.412566691637 102.8854086175561 336.78540756553411 375.78824881464243 122.10144360363483 103.9261933490634 155.22358644753695 1228.7428305968642 394.37392992526293 464.81882700324059 247.38664243370295 995.28195920586586 128.42902705073357 231.07355928421021 52.469590097665787 412.41437795013189 113.18020509928465 150.89893563091755 490.66902595758438 2913.1763852536678 1214.5523631796241 420.25022284686565 1255.9686989411712 992.54022830724716 3658.5328556746244 170.29043230414391 366.04712326824665 640.40930689126253 1052.4349254593253 314.84574200212955 97.249624371528625 1264.4784546792507 658.41599632054567 796.00268872082233 114.59601485729218 373.26147759705782 677.64206743985415 188.37249746918678 171.9178514778614 210.04771177470684 1143.6882719770074 413.50491075962782 126.5558951869607 678.17701829969883
leaf_count=7365 5158 606 1885 8257 3413 6715 2719 18442 4292 1595 10004 2621 18266 14358 5563 676 10037 2244 13812 714 2324 3169 799 771 1275 10238 2691 3107 2037 10682 994 1656 435 2637 860 1286 4246 28011 8231 2861 8933 6573 32286 1021 2366 4947 7053 2542 983 10152 6517 6846 757 2582 5110 1421 1282 1631 8462 3041 1052 3966
internal_value=-2.5128e-05 -0.0161965 0.0132331 0.00820055 0.0251964 -0.0100568 0.0122351 -0.0285136 -0.0045493 -0.0145201 0.0305691 0.00028489 -0.0158238 0.0166577 0.0256601 0.00380609 -0.00922083 0.00682301 0.00564861 0.0157914 0.0134792 0.000709665 0.029078 0.0108916 0.00160182 -0.0023963 0.0238728 0.0267697 -0.00314549 -0.0349343 0.00860049 -0.00219268 -0.012828 0.0180642 0.0071237 -0.014631 -0.00645543 -0.0233732 0.0141311 0.0237524 0.0101367 0.0154221 -0.0136026 0.0307109 0.0261719 -0.0056922 0.027059 0.00839969 -0.0313877 -0.00671136 -0.0239699 -0.00789061 0.0182116 0.0165048 0.000284479 0.0119642 0.0106819 -0.00515751 0.00690923 0.0187815 0.00657863 0.0374106
internal_weight=43446.8 19572.1 23874.7 16817.1 7057.6 13073.5 11146.3 6498.55 5842.05 7231.49 4508.73 5670.82 6661.25 6109.96 2755.12 3775.01 3313.33 5036.29 4723.71 2548.87 4239.54 570.234 2222.94 1586.79 2528.72 1698.81 962.078 859.193 1552.69 2863.67 3425.86 1297.85 4664.28 2229.6 2800.76 1760.64 641.568 3634.88 1318.48 1870.42 3087.38 1817.18 4485.25 2100.84 1252.37 974.255 1450.17 470.069 1868.39 1895.8 3571.59 1043.39 1480.4 1365.8 958.468 280.826 1842.29 338.477 1256.87 585.423 179.025 848.467
internal_count=346575 178923 167652 123121 44531 113682 79391 65241 49514 64168 27132 43730 59404 41864 17128 28420 28744 37527 35283 17399 29231 4764 13715 10887 20770 14055 6512 5798 13175 30107 25370 9913 41138 14873 20852 15569 5532 35134 9002 12633 22745 12236 39651 12916 7929 7568 9772 3817 19425 15310 34528 8883 9912 9155 7207 2097 13645 2625 9322 4323 1487 4987
cat_boundaries=0 1 2 3 4 5 6 8 9 11 13 15 17 19 21 23 25 27 28 30 32 34 35 37 39 41 43 45 47 49 51
cat_threshold=1023 992 261120 7168 24 768 8126464 2 3072 163872778 271878 1149567393 183168 1098925536 465184 2152073994 8453 67601634 246144 60328708 9222 1082411169 409600 59900558 336355 26348160 5259 7424 1174489217 164017 68076928 377120 211402860 393412 1 1141047496 432664 222938336 451040 2168619851 12817 2151811587 32903 1140916612 398048 1150698913 422155 143722084 8496 4245512 263218
is_linear=0
shrinkage=0.05


Tree=11
num_leaves=63
num_cat=28
split_feature=4 4 3 35 6 6 31 6 10 31 31 0 4 6 9 9 4 10 36 10 9 9 4 9 23 3 32 9 9 0 4 37 9 22 9 23 6 9 32 9 12 31 24 6 8 9 9 6 9 13 9 12 30 27 0 7 20 4 8 22 10 9
split_gain=3341.65 622.051 420.476 227.837 224.289 137.531 117.968 99.8402 79.0761 74.406 60.4829 58.1448 60.0168 57.514 52.9137 50.2967 47.7659 47.7534 45.6825 43.4744 37.4278 36.3109 33.5346 32.6054 31.1528 29.5224 29.2375 28.791 28.6898 28.5705 28.1322 27.6234 27.3302 26.7997 25.3817 25.2155 25.0691 24.7809 27.5238 24.7413 25.3244 22.8839 22.8061 21.8183 23.0611 21.8029 21.2769 21.2258 30.3881 23.3058 28.1012 21.1046 21.0808 20.9009 20.2005 20.0505 23.0435 19.8991 19.8803 19.8141 19.6319 28.2003
threshold=0 1 2 0.27273567778375479 65002.000000000007 45604.000000000007 48.000000000000007 50477.000000000007 21.425000000000004 48.000000000000007 48.000000000000007 7012.5000000000009 3 37002.500000000007 4 5 6 16.685000000000006 0.024807309143686507 13.435 7 8 9 10 99.050000000000011 11 inf 12 13 4212.5000000000009 14 0.50180305302105044 15 14921.000000000002 16 99.65000000000002 85001.000000000015 17 inf 18 1.5000000000000002 48.000000000000007 2.5000000000000004 125000.50000000001 19 20 21 44002.000000000007 22 21.500000000000004 23 1.5000000000000002 102548.50000000001 84.850000000000009 15612.500000000002 24 6004.5000000000009 25 26 29758.000000000004 23.205000000000002 27
decision_type=9 9 9 2 2 2 2 2 2 2 2 2 9 2 9 9 9 2 2 2 9 9 9 9 10 9 8 9 9 2 9 2 9 10 9 10 2 9 8 9 2 2 8 2 9 9 9 2 9 10 9 2 8 8 2 1 10 9 9 10 2 9
left_child=2 4 5 9 6 20 8 31 13 18 17 46 34 35 -10 57 60 33 27 39 -1 -14 47 42 45 59 41 -3 54 -16 -31 -4 -19 -7 -13 37 -23 -2 51 -20 53 -22 -11 44 -36 -24 -6 48 -15 50 -49 -39 55 -41 -21 -30 -57 -5 -47 -17 -9 -62
right_child=1 3 7 15 11 10 -8 16 14 23 -12 12 21 22 29 25 -18 32 19 28 26 36 24 -25 -26 -27 -28 -29 52 30 -32 -33 -34 -35 43 -37 -38 38 -40 40 -42 -43 -44 -45 -46 58 -48 49 -50 -51 -52 -53 -54 -55 -56 56 -58 -59 -60 -61 61 -63
leaf_value=-0.010212954431267952 0.026948515874695506 0.010163602700895495 -0.019106436524122399 0.013252095057448704 -0.0050634230717247668 -0.017009526619866822 0.022872042038564026 -0.028239530511346339 0.0028216403445981897 0.043206714506626456 9.6044627548519176e-05 -0.0072490618170635863 -0.014585252632516865 0.023572249513678773 0.0023983392042571353 0.031540663567123588 -0.037310319448527099 -0.020293138937468869 -0.0091834567243353708 0.02617051260649338 -0.0015508330848524705 0.0036142840911243057 0.0080088827200530087 0.017216977763315735 0.032569466216379683 0.044669634215327908 0.01962650754816312 -0.013272084465747961 0.0071288455472323922 0.024128967429423581 0.012412134706374291 0.0053383100047733473 -0.0090264688813394261 -0.02591488375942106 -0.0019177236195775035 0.052077088118683383 -0.0064048540015313633 0.002287511644862102 0.025818967807822488 -0.015892114337402077 0.019557848441010203 0.026630785377276974 0.024542598937375204 -0.0035838069842821607 0.014475802222012245 0.023317472275317289 -0.021297158477271427 -0.010171951070648881 -0.003948672207664857 -0.0069298895719059998 0.011407562532331177 0.018772148554451269 0.0049864734011992413 0.0071217174561684603 0.0045147155374206894 0.048537494425288659 0.018843693805762535 0.026991817777004164 -0.0085781285186909469 0.0086127488000402024 -0.00032792312266006996 -0.028335741018014823
leaf_weight=994.67199857532978 190.66040337830782 226.29801088571548 1591.3749060630798 583.42714831233025 373.51163393259048 2441.517501719296 1420.2764011994004 2175.2792953774333 918.63285663723946 291.95424461364746 614.81746467202902 289.95358667522669 724.34744270145893 291.09407856315374 295.87898670881987 2248.1928589046001 2103.131688863039 718.62653414160013 228.80838850140572 896.3307124376297 1768.6606834828854 1127.0911734104156 251.26927485316992 1024.4381552785635 55.197405241429806 585.81609849631786 202.17405389249325 285.8029913008213 312.86272452771664 1220.4462000131607 1031.3540804162621 124.62040843814611 2404.8288514018059 1291.8333470895886 270.27344656735659 36.926898695528507 1399.6521145626903 1045.8021729588509 188.27151098847389 118.3394260853529 360.68204066902399 75.09259620308876 372.50037626922131 297.74308843165636 1104.7732923924923 41.610164493322372 493.35809325426817 185.943234346807 152.75517290085554 478.24379744380713 684.17512858659029 238.42449582368135 606.06361503154039 593.15458998829126 122.38864187896252 76.123633407056332 461.08214131742716 631.63212665915489 1590.5878138318658 98.351331353187561 174.50243561714888 189.37437395751476
leaf_count=8356 1362 1676 15316 3672 3066 22518 9425 21974 6824 1787 5172 2191 6015 2047 2204 13238 23219 6569 1653 5995 14682 9010 1968 6483 432 3141 1537 2182 2121 8318 7596 1182 21589 12281 1972 263 11552 7650 1323 844 2481 574 2380 2282 8043 329 4091 1379 1095 3507 4971 1725 4233 4147 824 515 3060 3679 12643 618 1716 1864
internal_value=-4.21052e-05 0.0110227 -0.0174336 0.0207659 0.00499831 -0.0112682 0.00949051 -0.0275931 0.00735441 0.0145382 -0.0149273 -0.00261569 -0.00062205 0.00358859 0.0132546 0.0297907 -0.0314458 -0.0162744 0.0110371 0.0129377 -0.00231396 -0.00478416 0.000115238 0.0234274 -0.00443196 0.0334328 0.00156856 -0.00297653 0.0168276 0.016939 0.0189248 -0.0173312 -0.0117125 -0.020091 0.00626453 0.0112109 -0.00192804 0.0103036 0.00791165 0.00553788 0.00868415 -0.000403049 0.0322579 0.00863607 0.0113449 -0.00553987 -0.0146066 0.00503068 0.0145428 0.00193683 0.00681025 0.00534798 0.0120288 0.00329394 0.0233397 0.0171912 0.0230514 0.0205565 -0.00762797 0.0304499 -0.0263377 -0.0156919
internal_weight=43393 26522.5 16870.5 10124.2 16398.3 10512.2 10317.6 6358.28 8897.27 5976.83 7471.62 6080.7 5213.83 5430.96 3466.31 4147.42 4642.29 6856.81 4287.94 3775.84 3040.6 3251.09 3730.88 1688.89 1938.66 2932.36 2045.93 512.101 2474.85 2547.68 2251.8 1716 3123.46 3733.35 1962.74 1700.09 2526.74 1663.16 1472.5 1300.98 1072.18 1843.75 664.455 1672.79 1375.05 1883.47 866.87 1792.21 443.849 1348.36 870.118 1284.23 1456.13 711.494 1018.72 850.068 537.206 1215.06 1632.2 2346.54 2539.16 363.877
internal_count=346561 188012 158549 64729 123283 93278 75061 65271 65636 40381 68129 48222 41065 40694 24942 24348 48773 62957 29731 25873 25149 26577 28371 10650 15372 16997 16793 3858 16748 18118 15914 16498 28158 34799 14488 12323 20562 12060 10698 9125 7472 15256 4167 12297 10015 14940 7157 12999 3142 9857 6350 9375 9929 4991 6819 5696 3575 7351 12972 13856 25554 3580
cat_boundaries=0 1 2 3 4 6 8 9 11 13 14 16 17 19 21 22 24 26 28 30 31 33 35 37 39 40 42 43 45
cat_threshold=511 65024 2 57344 1145111873 514352 1149324769 444833 24 1279888640 252752 1275676068 295171 61440 2304019968 68 24 1224737040 15802 2203224782 73749 59392 1212236233 328032 1174634923 430240 38306052 1042 1309002211 180736 12323 3222800512 1043 3351514007 300033 18449978 34878 312448 18850 1 2182807552 2 2208 3290170744 402357
is_linear=0
shrinkage=0.05


Tree=12
num_leaves=63
num_cat=20
split_feature=1 4 1 31 36 36 22 21 21 36 21 22 31 21 21 22 10 22 31 12 30 33 9 9 4 36 10 9 9 9 9 10 21 9 9 9 9 10 9 1 21 32 21 36 33 36 22 9 33 9 21 9 9 9 34 33 2 10 9 9 34 23
split_gain=3004.29 682.473 328.877 235.016 142.976 122.556 109.995 109.019 81.5799 66.3755 65.7615 53.3035 51.6595 48.5019 47.0062 45.4737 47.9273 45.1896 44.0595 43.311 42.7108 40.7291 39.9897 38.2096 38.0859 37.5752 36.512 34.8034 33.3306 32.0829 31.7321 31.7079 31.5569 46.3859 31.4342 30.4691 29.2221 29.7993 29.0141 28.7634 29.6674 28.6032 27.6046 27.5716 27.0581 27.045 26.9716 25.9059 25.0633 24.8652 24.6799 23.6083 23.2396 22.4455 21.7038 21.3862 21.3174 21.2474 27.4709 21.0715 22.1426 24.1175
threshold=12.15 0 8.2900000000000009 48.000000000000007 0.067705492767598865 0.11721055462184875 10461.500000000002 3.5000000000000004 4.5000000000000009 0.10266612000000001 5.5000000000000009 23807.500000000004 48.000000000000007 6.5000000000000009 3.5000000000000004 5072.5000000000009 15.985000000000001 18854.500000000004 48.000000000000007 1.5000000000000002 183674.00000000003 689.50000000000011 1 2 3 0.041957798918918925 21.025000000000002 4 5 6 7 24.925000000000004 4.5000000000000009 8 9 10 11 23.995000000000001 12 11.460000000000003 7.5000000000000009 inf 1.5000000000000002 0.12730542408158876 729.50000000000011 0.081831740830171348 19830.500000000004 13 684.50000000000011 14 8.5000000000000018 15 16 17 225.50000000000003 684.50000000000011 827.8850000000001 19.335000000000004 18 19 155.50000000000003 96.950000000000017
decision_type=2 9 2 2 2 2 10 8 8 2 10 10 2 8 10 10 2 10 2 2 10 2 9 9 9 2 2 9 9 9 9 2 8 9 9 9 9 2 9 2 10 8 10 2 2 2 10 9 2 9 10 9 9 9 2 2 2 2 9 9 2 10
left_child=2 4 15 5 13 10 8 12 41 21 19 18 20 24 59 16 -1 36 23 25 22 32 -6 43 -2 54 -8 -10 -21 -15 -28 38 33 -5 -14 -27 37 -12 -16 40 -29 42 -4 48 -17 -41 51 -26 50 -20 -9 -11 -18 -23 -3 -53 -55 -44 -59 -7 61 -61
right_child=1 3 6 9 7 14 26 11 27 46 17 -13 34 29 31 44 52 -19 49 28 -22 53 -24 -25 47 35 30 39 -30 -31 -32 -33 -34 -35 -36 -37 -38 -39 -40 45 -42 -43 57 -45 -46 -47 -48 -49 -50 -51 -52 55 -54 56 -56 -57 -58 58 -60 60 -62 -63
leaf_value=-0.029949259307893356 -0.00024905499695608232 -0.0024211558930760952 -0.022876089384551119 0.032529213193118973 -0.0087326457293566608 0.0040855851113100151 -0.023181663162059055 0.013836232675761298 -0.015695998629223312 0.022994339958652077 0.020548796325531492 -0.0074702549056041637 -0.0016535745895121139 0.015351612869345159 0.032233075332478892 -0.0289987573048568 0.00023714712637748882 -0.0019015900676551689 0.0020193337946156358 -0.0018030687666129898 -0.016469380998463502 0.0013794910202825374 0.0039969536365028775 0.0044083034998148992 -0.0064301669359488793 0.014834526026647508 -0.00056997607263754933 -0.0074390011300935312 0.017535924240632463 -0.0011968067197742449 -0.018718416917684499 0.035622049862727129 0.03144063822725409 0.0049931122120675893 0.020730632665810558 0.0016447594912256469 0.013403984569447667 0.043072045983241367 0.014073226191960123 -0.00080308377051674655 0.01057222429208767 0.0025743061141990584 -0.016483876643865174 0.023748734531697194 -0.039511962738800567 0.017981141901979275 0.018994292413374001 -0.016360894022504301 0.0041661716928988986 0.029613136614799435 0.040318154536522863 0.045579720619002471 -0.01938432507296424 0.021197851811137643 -0.020826676709647465 0.03280776981531363 -0.0025084701942853331 0.0051449611885294099 -0.013171143984144687 0.020869358659423777 0.0099206322290819673 0.052080730224213306
leaf_weight=1326.1234547719359 1236.3092829436064 645.56478380411863 974.79873342812061 270.2708352804184 969.58609595894814 413.35854690521955 2763.686191380024 739.68373421579599 482.91731514781713 429.95098495483398 500.49371893703938 370.47156967967749 261.2236820012331 371.34157394617796 384.7493332773447 1260.2728098034859 210.81573234498501 311.63890620321035 111.57985647022724 297.15088962763548 514.84780190885067 291.61012463271618 1657.1167475283146 1624.2559628933668 1533.4868937879801 601.23965708911419 386.33570693433285 1513.5401238948107 932.92327912896872 1262.175528652966 665.4823170080781 614.2608697116375 1030.676986835897 365.99460123479366 395.55602825433016 1575.0564736947417 1172.3424628078938 207.83593321591616 649.137644931674 479.80197481065989 269.31116271018982 226.45148976147175 1514.2655316069722 607.04349476844072 1189.8368143737316 319.03213176876307 294.99818781018257 1207.3632235974073 698.41034812480211 481.35846784710884 99.857429921627045 658.04455079138279 591.39975867420435 710.94007316231728 213.0219951197505 653.02553105354309 109.4258891120553 314.40273487567902 564.56716143339872 338.49839040637016 385.01455543935299 75.743201553821564
leaf_count=14083 9570 4894 9066 1685 7685 2711 26394 5447 4235 2434 3385 2903 1845 2907 2296 13561 2161 2238 763 2173 4289 1890 12776 12365 12931 4159 3509 13318 6554 9944 6149 3630 6232 2335 2763 11090 7914 1339 3985 4096 2379 1831 14035 4233 13253 2532 1746 10339 5308 3236 712 3535 6105 4504 1646 3693 697 2786 5086 2138 2488 472
internal_value=-0.000236964 0.00936968 -0.0182815 0.0171348 0.00159611 0.0125121 -0.0133953 0.00567442 -0.0095169 0.0261164 0.00869533 0.0107381 -0.000634824 -0.00460208 0.0211271 -0.02946 -0.0241135 0.0157331 0.0122845 0.00507769 -0.00330099 0.0210915 -0.00071991 0.0102914 -0.0075814 0.0018699 -0.0201642 -0.00352333 0.0129921 0.00265174 -0.0122358 0.0266247 0.0260354 0.0172795 0.0121181 0.00536438 0.0186553 0.0267794 0.0212791 -0.001181 -0.00471829 -0.0146269 -0.0157835 0.0146574 -0.0341042 0.00669881 0.0329749 -0.0108483 0.0111643 0.024954 0.0169861 0.0353437 -0.0144666 0.0136801 -0.00698771 0.0389213 0.0178185 -0.0128945 -0.00671089 0.013655 0.0183237 0.0265763
internal_weight=43327.7 28274.6 15053 14133 14141.7 9318.03 10474.6 8530.99 6659.09 4814.94 6457.27 4732.66 3798.33 5610.68 2860.76 4578.45 2128.34 2192.31 4362.19 4264.96 3141.55 2778.92 2626.7 3769.25 3977.16 3034.88 3815.5 3064.6 1230.07 1633.52 1051.82 1648.15 1666.94 636.265 656.78 2176.3 1880.67 708.33 1033.89 2581.69 1782.85 3594.49 3368.03 2145 2450.11 798.834 2036.02 2740.85 1537.95 592.938 839.541 1741.02 802.215 1111.98 858.587 1311.07 820.366 2393.24 878.97 1212.61 799.256 414.242
internal_count=346458 201879 144579 91863 110016 63112 95416 64325 59364 28751 45392 34967 29358 45691 17720 49163 22349 14876 32064 30516 24750 17343 20461 28065 32840 21789 36052 26560 8727 12851 9658 9911 10252 4020 4608 15249 12638 4724 6281 22325 15697 32804 30973 15700 26814 6628 11408 23270 11467 3999 6159 9662 8266 7091 6540 7228 5201 21907 7872 7809 5098 2610
cat_boundaries=0 1 3 5 6 8 10 12 14 16 18 20 22 24 26 28 30 32 34 36 38
cat_threshold=16128 1229147272 473897 173804316 25687 12288 67764707 176160 1149585901 393953 3264447502 1666 10259340 30359 164630280 8268 1149602875 153857 29360650 275529 2157199378 74770 25954824 108 2281999159 90167 1073808677 332528 1161924069 418721 42764074 131633 2032033 445345 3272246210 274470 1233767621 362529
is_linear=0
shrinkage=0.05


Tree=13
num_leaves=63
num_cat=3
split_feature=1 3 1 35 35 21 21 21 31 35 21 31 2 21 35 30 35 18 22 10 30 1 22 33 20 36 33 1 2 21 5 10 10 21 7 12 10 21 20 35 20 21 12 35 10 33 35 2 36 22 23 30 21 33 36 33 33 17 10 2 30 10
split_gain=2755.45 563.211 321.074 196.739 195.993 113.438 109.902 71.6928 66.689 66.4237 63.1994 57.866 52.7749 51.9651 50.8603 47.9996 47.797 42.5459 41.3852 36.5784 34.8611 34.4454 33.5432 33.2138 31.4702 31.2375 30.9268 30.0803 29.7235 28.9081 27.8197 26.5962 25.2116 25.0564 24.8366 23.7534 24.1764 23.7253 24.5103 23.6266 22.8136 22.4949 22.4614 22.9482 21.5347 23.0045 21.4484 21.0253 20.0971 20.0331 19.812 19.5453 27.3417 19.2936 20.2912 18.8715 18.4908 18.3605 18.2834 18.2085 18.0074 19.9607
threshold=12.15 0 7.9050000000000011 0.1969553394858273 0.19201063829787238 4.5000000000000009 3.5000000000000004 2.5000000000000004 48.000000000000007 0.23809917498531544 3.5000000000000004 48.000000000000007 680.3850000000001 2.5000000000000004 0.36000072000288003 226553.00000000003 0.3200029257677855 20.500000000000004 23496.500000000004 13.255000000000001 179549.00000000003 6.4400000000000004 8326.5000000000018 684.50000000000011 15004.500000000002 0.14755065198493192 674.50000000000011 21.070000000000004 383.88000000000005 8.5000000000000018 1 19.695000000000004 16.505000000000006 1.5000000000000002 2 1.5000000000000002 19.885000000000002 5.5000000000000009 7008.5000000000009 0.27273567778375479 3225.0000000000005 5.5000000000000009 1.0000000180025095e-35 0.39216635622971957 14.945000000000002 664.50000000000011 0.073536550542547138 410.66500000000008 0.057685437788018441 22560.500000000004 96.15000000000002 269158.00000000006 5.5000000000000009 709.50000000000011 0.066839607843137278 749.50000000000011 674.50000000000011 95.450000000000017 13.605000000000002 688.34500000000014 107819.00000000001 20.825000000000003
decision_type=2 9 2 2 2 8 8 8 2 2 8 2 2 8 2 10 2 2 10 2 10 2 8 2 10 2 2 2 2 10 9 2 2 10 1 2 2 10 10 2 10 10 2 2 2 2 2 2 2 10 10 10 10 2 2 2 2 8 2 2 8 2
left_child=2 4 15 13 10 16 8 42 24 30 40 22 14 34 26 21 20 37 27 -19 33 -1 -9 -13 39 -24 31 35 -11 -21 -7 -8 -23 -4 -3 36 -15 -12 48 -6 -2 -28 -5 -44 -32 -46 -29 -18 -39 -14 -41 52 -25 54 -35 -17 -38 -37 -22 -26 61 -30
right_child=1 3 5 7 6 9 12 11 -10 28 17 23 49 18 -16 55 47 19 -20 29 58 32 25 51 59 -27 41 46 60 -31 44 -33 -34 53 -36 57 56 38 -40 50 -42 -43 43 -45 45 -47 -48 -49 -50 -51 -52 -53 -54 -55 -56 -57 -58 -59 -60 -61 -62 -63
leaf_value=-0.036360888538707163 0.0050113112287667799 0.011982480226227027 -0.023151859637211447 0.006827493560795205 -0.0028201982799032064 -0.014913099878996822 0.012109134882779293 0.024052146884583639 0.013039993383405963 0.014145463450774977 0.0028420315517562254 0.035479673818811647 0.0062317180181626873 0.0039019746742180931 0.028216568070564531 -0.032637585570114806 0.0048273470858557974 -0.011493730861011343 -0.0024859407552789837 -0.0023600055565894296 -0.031205414613584743 -0.027012429941455501 0.0077247414870447008 0.022387655691334513 -0.0028454447861258232 0.026796673721778609 0.0057854816933158217 0.0068486487563496198 -0.003670523587438078 0.012116937955373927 -0.012127496967097849 0.028861157016455669 -0.016484644822788795 -0.016443192932990163 -0.0067004830093191333 0.016273833504242326 0.024533346086135457 0.023878895417605499 0.010701834026279465 0.0070059778216473405 -0.010894587356542605 0.015628584811324547 0.014334201225234145 0.035982282964264554 0.041206910264417473 -0.0015836265231343651 0.029278346877747732 -0.011666937294981774 0.07418814945798631 -0.011094091050494873 0.031359314690492336 0.010169369103977251 0.040238283952240911 -0.020726416202543674 -0.0056241069442903475 -0.045061111023745964 0.0075659909360713306 0.052832638654428304 -0.020756426241103951 -0.013814916654116377 -0.0066531359884294252 0.025195421452946912
leaf_weight=578.09699465334415 249.19853932410479 245.75685498863459 949.25801978260279 786.05230623483658 640.86948804557323 1744.3269369229674 469.60035777837038 1955.9094164073467 979.52402704209089 397.61149989068508 1063.6538109406829 1424.9915778785944 796.33233835548162 1190.8113283738494 649.09665074944496 933.20030095428228 266.81489691138268 908.2083083987236 447.23779249936342 1801.0549101606011 704.13244531303644 1402.0166689604521 770.94554169476032 819.30709721148014 1181.7848570868373 297.565553560853 1393.1590110510588 139.66968929022551 132.90389766544104 426.48588467389345 647.81165404617786 478.20862468332052 956.74771868437529 827.07742729783058 644.10936500132084 1038.8083262071013 316.93449360877275 66.103329591453075 404.63795884698629 542.5010075122118 2363.8467321395874 994.9951701015234 560.04353910684586 156.66465243697166 32.801577530801296 739.93285597860813 449.92149515450001 700.29088976234198 28.370378211140633 211.05999635905027 98.707370907068253 202.48586125671864 290.60250709950924 676.6102460026741 910.43244082480669 454.56628531217575 325.46320579946041 35.517446741461754 1032.5653847157955 556.42510440200567 646.92087876051664 109.01014325022697
leaf_count=6471 2080 1783 9058 4962 5053 16225 3389 11775 6839 3158 8387 7792 5986 8307 4246 10544 2234 7470 3194 14231 7072 15222 5017 4702 9090 1801 10115 982 1147 3213 5841 3287 10068 7810 4723 7059 2146 504 3107 3973 19811 7046 3550 924 281 6467 2754 6362 210 1661 702 1227 1594 6364 8293 5354 2208 240 10022 4575 5693 903
internal_value=-0.000116639 0.00900721 -0.0175753 0.0171752 0.00293356 -0.01286 0.00787865 0.0223906 0.0017031 -0.00679795 -0.00314424 0.0249273 0.0128263 0.00937335 0.015411 -0.029044 -0.0173076 0.000322448 0.0118356 -0.00303644 -0.0192401 -0.0254229 0.0201602 0.0301942 -0.00197362 0.013036 0.0129194 0.0136672 0.00278214 0.000411756 -0.010692 0.0205612 -0.0227422 -0.0162696 -0.00154076 0.011579 0.00811933 0.00706218 0.0160557 0.00396916 -0.00937769 0.00988649 0.0126645 0.0190662 -0.0053661 0.000232776 0.0239649 -0.00711633 0.0389867 0.00260177 0.0107549 0.0244552 0.0270614 -0.0135635 -0.0107741 -0.0367069 0.015937 0.0174825 -0.0249929 -0.00635692 -0.00230113 0.00933691
internal_weight=43245.8 28402.6 14843.1 12098.8 16303.8 10518.5 8992.26 7264.57 3999.81 4451.32 7311.56 5761.81 4992.45 4834.23 3985.06 4324.63 6067.18 4698.51 3944.36 3135.75 5100.08 2936.86 3024.42 2737.39 3020.29 1068.51 3335.96 3497.13 1286.45 2227.54 3164.87 947.809 2358.76 3363.38 889.866 2907.53 1833.21 1562.77 499.112 1282.08 2613.05 2388.15 1502.76 716.708 1420.55 772.734 589.591 967.106 94.4737 1007.39 641.208 1312.4 1109.91 2414.12 1737.51 1387.77 642.398 1074.33 1736.7 1738.21 888.835 241.914
internal_count=346304 201715 144589 76740 124975 96930 65962 43344 30232 39715 59013 33908 35730 33396 28083 47659 57215 37122 26890 24914 48619 31761 18593 15315 23393 6818 23837 23696 10901 17444 28814 6676 25290 31525 6506 19960 12661 12208 3821 9728 21891 17161 9436 4474 12589 6748 3736 8596 714 7647 4675 7523 6296 22467 16103 15898 4354 7299 17094 13665 7743 2050
cat_boundaries=0 1 2 3
cat_threshold=6 2 2
is_linear=0
shrinkage=0.05


Tree=14
num_leaves=63
num_cat=21
